
// This is the file to store all network parameters.

#ifndef NETWORK_DATA_H_
#define NETWORK_DATA_H_

__attribute__((section(".lrodata")))

// Layer 0
const float weights_0[] = {0.265318, -0.635364, -0.448572, -0.397925, -0.608440, -0.144179, 0.991774, 0.909552, -0.702025, 0.009211, 0.030378, -0.798265, 0.721535, -0.465417, 0.868913, 0.631113, 0.439879, 0.161190, 0.339219, 0.605960, -0.538167, -0.854999, 1.033297, 0.051018, -0.029093, -0.091790, -0.986841, -0.056825, 0.775135, 0.738198, 0.529198, -0.061650, 0.817784, -0.619838, -0.505103, 0.757404, 0.280526, 0.142835, 0.470542, 0.684088, -0.519144, 0.479636, 0.744788, -0.469707, -0.360363, -0.671666, -0.780982, -0.397915, 0.962979, 0.186326, 0.827816, 0.650442, 0.039969, -0.912538, 0.654895, 0.855408, -0.907258, -0.551483, -1.002037, -0.205373, 0.010093, -0.199455, -0.437730, 0.487613, 0.845866, -0.277788, 0.004276, -0.563214, -0.900583, -0.152432, -0.593330, -0.178747, 0.187816, -0.258418, 0.160096, -0.283393, 1.044555, -0.087998, -0.510170, 0.652513, -0.374838, 0.590886, 0.576335, 0.016965, -0.084855, 0.170368, -0.223117, -0.543185, -0.913308, 0.744452, -0.784655, 0.464534, -0.050135, 0.979418, -0.357185, 0.035749, -0.647254, 0.162976, 0.823469, 0.724238, 0.305101, 0.876505, 0.505095, 0.047166, 0.353845, -0.292529, 0.172867, -0.389387, -0.432443, 0.670365, 0.663105, 0.689273, -0.487853, 0.640787, 0.885487, -0.107502, 0.691457, 0.358772, 0.635783, -0.767336, -0.195559, 0.431721, 0.288854, 0.613503, -0.636758, -0.685048, 0.747296, -0.898197, -0.341108, 0.782218, 0.528946, -0.255653, 0.972025, -0.223033, -0.303824, 0.216758, 0.180987, 0.761617, -0.617675, 0.400750, -0.405856, -0.164096, -0.076866, -0.340961, 0.245812, 0.474520, -0.361856, 0.712031, -0.971863, -0.124207, -0.309701, 0.789754, 0.131741, -0.074835, -0.867843, 0.242661, -0.295662, 0.210155, 0.209830, -0.067506, -1.134582, -0.087620, 0.670431, 0.711559, -0.516179, -0.531947, 0.367332, 0.993522, -0.109250, 0.162732, 0.490026, -0.500934, 0.887765, -0.647748, 0.029775, -0.221627, -0.638650, -0.317735, 0.744601, 1.897375, 0.153866, 1.108578, -0.058411, -0.265485, -0.700547, 0.406247, -0.759454, -0.253213, 0.617606, -0.340032, -0.490698, 0.018224, 0.312047, 0.428350, -0.755896, -0.727938, 0.759591, 1.077179, -0.645582, -0.254040, -0.525139, -0.842950, 0.017021, -0.495155, 0.117484, -0.498090, 0.298442, 0.950864, 0.712491, 0.262881, 0.945898, 0.014481, 0.392932, -0.599906, 0.217896, -0.096440, -0.506056, 0.495431, -0.863168, 0.287438, 0.039450, 0.017363, 0.328684, -0.521657, 0.398668, -0.743176, 1.052015, 1.055690, -0.549037, 0.998051, 0.209786, -0.078139, 0.694303, 0.015902, 1.317198, 0.472476, 0.136405, 0.026749, 1.303781, 0.056526, 0.188951, 0.404840, -0.804667, 0.479772, -0.367789, 0.323716, 0.107537, 0.952059, 0.926921, 0.846968, 0.256245, 0.065612, 0.024971, 0.973835, 0.220224, -0.409437, 0.835369, 0.135131, 0.289493, -0.957194, 0.404585, -0.794493, -0.020210, 1.011850, -0.015491, 0.139634, 0.844443, 0.329742, 0.219507, 0.268692, 0.433376, -0.230583, 0.632223, 0.759311, -0.059628, 0.773884, 1.254716, 1.246239, 0.159066, -0.813777, -0.392497, 0.775704, -0.562373, 0.248047, 0.160508, 0.205594, 0.557263, -0.753397, -0.491966, 0.024763, -0.582737, 0.674399, 1.281404, 0.879888, 1.306884, 0.750942, -0.478980, 1.417071, 0.573965, 0.532457, -0.679365, 0.525026, 0.291593, 0.231392, 0.245817, -0.330578, -0.569941, -0.225515, -0.787349, 0.778060, 0.056972, -0.168956, -0.137699, -0.485260, -0.048480, -0.032831, -0.437557, -0.237420, 0.294876, -0.072990, -0.562105, -0.245630, -0.065305, 0.277303, 0.890950, 1.495577, 1.374908, 0.852930, 0.847359, 0.667965, 0.575190, -0.509643, 0.948979, 0.669987, -0.753120, -0.842270, 0.817782, -0.879966, 0.029732, 0.219370, -0.300031, -0.167601, 0.508718, -0.560683, 0.234821, -0.435111, 0.594364, 0.671217, 0.067231, 0.306784, -1.045889, 0.655933, 0.411567, 0.448361, 0.932392, 0.176563, 0.995614, 0.901880, 0.963430, 1.048944, 0.710182, 1.083301, -0.504343, -0.344467, -0.067882, -0.819912, 1.035694, 0.634516, -0.415916, -0.331727, -0.300002, -1.123965, -0.983302, -0.845632, -0.085238, -1.079519, -0.524836, -1.452231, -0.616209, -0.551117, -0.509981, -0.169081, 0.791017, 0.328070, 0.779705, 0.463275, -0.597958, 0.128129, -0.407817, -0.381385, 0.741869, 0.865424, -0.831560, 0.176948, -0.863660, 0.767358, -0.265270, -0.645086, -0.510758, 0.199614, -1.178589, -2.010961, -2.512581, -1.139226, -1.383857, -0.971585, -1.517304, -0.904713, 0.197798, -0.204479, -0.300964, 0.597438, 0.707484, 1.683951, -0.097543, 0.538523, -0.638999, 0.332850, 0.771096, 0.043245, -0.363234, 0.973282, 0.184364, 0.700802, 0.224430, -0.550374, 0.127553, -0.268058, -0.688149, -1.835356, -1.030972, -1.047992, -1.150438, -0.875981, -1.869668, -0.766156, 0.140124, 0.975344, 1.686487, 0.932742, 0.630893, -0.066315, -0.028496, 0.356849, -0.450951, -0.696130, -0.004468, 0.034273, 0.273336, -0.240634, -0.442393, -0.731432, 0.138670, 0.064157, -0.564737, -0.585198, -0.667933, -0.566282, -1.145218, 0.347565, -0.037111, -1.012698, -0.647641, -0.298211, 0.194322, 0.642636, 1.223623, -0.350814, -0.146398, 0.916435, -0.468307, 0.423044, -0.105196, 0.513425, -0.550264, 0.436510, 0.704723, -0.727080, -0.656508, 0.515358, -0.194803, -1.118317, -1.251923, -0.588224, -0.706333, -0.711873, -1.111648, 0.437474, -0.169823, 1.180534, 0.389933, -0.906632, -0.999544, -0.307560, 0.147388, 0.083301, -0.881555, 0.344187, -0.723356, -0.373570, -0.554736, -0.266367, 0.808605, -0.364090, 0.015519, 0.133133, 0.802508, -0.316089, 0.581510, -1.231779, -0.905898, -1.210645, -1.064697, -0.323711, 0.056729, 0.586187, 1.943134, 0.791322, 0.084548, -0.141827, 0.030093, -0.476059, 0.056759, -0.618964, -0.596074, -0.769990, -0.097003, -0.183328, -0.481760, 0.413763, 0.127051, -0.203723, 0.896039, 0.250358, -0.843143, -1.065614, -1.024277, -1.178275, 0.623096, -1.026904, 0.275192, -0.266285, 0.159321, 0.680313, 0.758102, 0.991746, 0.641630, -0.669519, 0.079116, 0.369561, -0.421357, -1.033516, -0.020005, -0.673444, -0.563495, -0.640175, -0.471091, 0.697204, -0.132288, -0.399934, -0.420204, 0.821808, 0.624607, 0.082051, -0.422397, -0.729075, 0.199346, -0.076779, -1.110559, 0.198555, -0.578627, -1.214502, -0.510266, 0.445814, -0.020290, -0.426048, -0.326880, -0.964613, -0.485811, 0.002473, -0.728097, -0.318768, 0.586501, -0.132699, 0.014213, -0.511044, -0.118838, -0.406098, -0.976144, 0.348576, 0.621524, 0.202284, -0.888642, -0.878104, -0.870624, -0.026184, -1.265766, -0.896148, -1.344035, -0.786524, -0.348145, -0.619187, 0.473981, 0.104407, -0.037296, -0.476317, 0.093877, 0.164625, -0.842801, 0.394438, 0.155129, -0.771718, -0.924394, 0.814230, -0.184577, 0.709765, -0.248524, -0.064905, 0.544494, -0.642827, 0.339927, -0.406121, -0.380339, -0.660957, 0.577754, -1.070725, 0.581605, -0.337075, -1.472039, -1.602814, 0.071086, 0.861207, -0.558951, -0.153741, 0.708808, 0.944398, 0.292005, 0.857153, -0.362012, 0.300268, -0.810086, 0.735139, 0.865340, 0.636850, -0.135504, -0.877327, -0.716175, -1.008040, -0.126770, -1.066188, -0.175637, 0.137802, -0.219905, -0.578674, -0.463373, -0.126470, 0.331855, -0.294614, -1.296250, -0.408983, 0.359160, -0.409818, -0.005233, 0.483408, -0.237348, -0.310475, 0.378139, -0.437629, 0.389199, 0.608285, 0.029731, 0.771538, 0.512775, -0.911194, 0.342992, -0.098114, 0.510342, -0.211262, 0.092358, 0.424842, -0.398357, 0.417940, -0.663813, 0.099627, -0.277973, 0.805872, 0.514266, 0.484274, -0.479946, 0.791978, 0.404447, -0.489702, 0.462585, -0.222898, -0.736224, 0.232829, 0.920403, 0.264076, 0.752889, 0.438214, 0.409976, 0.864122, 0.012884, 0.147522, 0.236838, -0.597742, 0.152046, 0.371468, -0.513485, 1.025385, 0.493510, 0.319027, 0.228574, 1.318621, -0.558719, 0.992791, 0.569179, 0.832157, -0.506882, 1.156192, -0.653942, 0.309373, 0.246183, 0.716227, -0.351508, -0.744737, 0.624283, -0.942352, -0.201090, -0.711403, 0.211168, 0.006010, -0.237877, -0.385056, 0.204740, -0.252501, -0.266711, 0.476439, 0.160786, 0.328364, 0.787172, 0.359574, 0.304008, -0.540186, -0.087196, 0.579989, 1.001580, -0.637437, 0.830190, -0.109871, -0.354775, 0.530974, -0.284869, 0.212326, 0.422311, 0.813473, -0.791170, 0.357143, -0.944154, -0.431381, 0.269363, 0.398527, -0.426044, 0.212431, -0.704022, 0.919119, 0.700191, 0.869947, 0.068872, 0.027167, 0.858366, 1.145046, -0.729728, 0.262959, -0.264856, -0.372391, 0.381547, 0.122663, -0.890615, -0.762830, 0.245871, -0.564641, -0.634777, 0.894633, -0.408710, 0.708870, -0.608909, -0.500435, -0.058884, 0.263252, 0.860189, -0.898361, 0.848626, 0.504331, 0.426086, 0.357625, 0.919642, 0.727968, -0.474088, -0.168318, -0.687390, 0.936904, 0.008060, 1.043444, 0.548850, -0.195790, 1.004804, -0.087688, 0.754882, -0.674309, 0.343440, -0.521878, -0.886110, 0.837064, -0.383811, -0.485376, 0.712742, 0.095362, -0.012263, 0.025281, 0.147195, 0.393483, 0.269580, -0.567128, 0.301118, -0.378982, -0.576752, -0.492367, 0.208100, -0.621274, 0.682272, -0.555891, -0.305462, -0.531934, 0.293050, -0.837599, -0.278626, 0.537285, 0.163263, 0.593031, -0.791135, 0.777554, -0.499279, -0.380705, 0.336596, -0.880773, -1.022837, 0.376381, -0.597486, -0.027308, 0.275225, -0.383235, -0.313032, 0.431247, -0.514663, -0.963326, -0.210850, 0.615705, -0.533032, 0.430608, -0.150037, 1.003685, -0.206885, 0.996963, -0.437275, 0.528592, 0.815375, 0.215254, -0.826534, 0.089106, -0.823013, 0.257407, -0.136845, -0.144555, 0.053852, -0.927616, 0.374900, -0.334797, 0.241819, 0.288087, 0.505255, 0.801963, 0.508373, 0.229748, 0.836906, -0.873765, -0.416372, 1.029410, 0.538087, -0.113358, -0.929728, 0.913826, -0.099042, 0.103094, 0.599888, 0.569288, -0.137357, 0.443835, -0.265350, 0.398205, 0.397668, -0.286730, -0.447647, 0.243104, -0.677038, -0.660914, 0.572213, 0.103160, 0.239627, -0.164687, 0.252947, 0.329369, 0.322047, 0.184243, 0.134498, 0.002248, 0.552371, -1.015438, 0.717535, 0.536104, 0.704766, 0.510526, -0.949535, -0.974835, -0.156431, 1.014089, 0.279451, 0.381845, -0.516363, 0.072727, -0.293599, -0.409554, 0.522704, -0.652468, -1.008142, -0.108879, 0.436528, -0.599162, 1.186501, 1.214710, 1.214068, 0.985749, -0.304246, -0.488812, 0.309460, -0.762414, 0.378723, -0.963840, 0.311671, -0.546422, 0.753507, 0.707116, 0.473306, 0.856278, -0.876777, -0.218802, 0.168951, -0.185036, -0.301221, -0.496519, 0.059581, 0.036380, 0.681149, -0.499653, 0.202085, -0.506895, -0.283048, -0.087464, -0.089129, 0.158034, 0.288137, -0.125833, 0.619338, 0.605526, 0.518474, -0.663544, 0.425353, -0.299503, -0.189971, 0.820871, -0.630486, 0.351563, 0.424567, -0.732976, -0.404408, -0.297992, -0.409616, -0.044528, -0.990863, 0.067278, 0.784811, 0.256098, -0.159035, 0.194202, -0.477505, 0.988323, 0.591696, 0.576550, 0.728327, -0.656225, 0.348351, -0.385216, 0.711990, -0.860693, -0.411215, 0.202815, -0.201060, 0.209083, 0.672156, 0.146609, -0.102142, -0.849988, -0.876430, -1.135953, 0.560756, -0.526701, -0.491199, 0.686168, 0.631709, 0.368953, -0.440300, -0.944592, -0.568343, -0.399358, 0.064084, 0.263349, 0.509677, -0.554316, -0.849359, 0.001900, 0.251455, 0.362329, -1.101315, -0.187472, -0.944293, 0.009313, -0.475528, -0.462231, 0.867890, -0.654455, 0.470837, 0.265048, -0.734438, 0.377006, -0.164718, 0.161614, -0.892481, -0.170384, 0.567338, 0.044162, -0.042926, 0.784281, -0.382738, 1.082882, 0.509325, 0.374960, -0.287636, -0.250943, 0.255094, 0.637620, 0.040935, -0.488278, 0.047878, -0.890518, -0.794983, 0.570287, 0.236288, -0.959487, -0.251777, -0.205140, -0.562631, -1.308848, -0.875441, 0.048279, 0.565088, -0.141579, 0.390140, 0.947458, -0.406896, 0.414056, 1.059687, 0.958420, 0.445707, 0.665103, 0.713300, 0.177489, 0.589529, -0.361433, 0.651352, -0.484392, 0.809998, -0.321708, 0.476729, 0.073218, -0.582165, -0.568644, 0.095026, -0.428212, -0.611609, 0.077416, 0.326208, -0.519290, -0.161247, -0.399907, -1.150926, 0.022843, -1.569464, -1.861978, -0.144662, 0.204177, 0.717415, 1.350250, 0.174581, 0.613595, 0.031789, -0.043131, 0.353117, -0.279543, -0.263628, 0.939663, -0.622204, -0.197443, 0.421677, -0.633698, 0.803935, -0.457847, -1.329756, -0.176958, -1.438177, -0.392605, -0.453909, 0.432907, 0.211973, -0.927155, -1.784924, -1.297869, -1.259952, -0.044991, -0.265942, 0.938308, 0.447999, 1.346900, 1.753987, 0.631883, 1.185241, 0.907310, 0.188026, 0.766958, -0.963621, 0.802474, -0.292356, -0.326337, 0.120663, 0.217864, -0.273991, 0.027013, -0.933435, 0.407597, -0.449744, -0.996256, -1.432156, -1.039398, -1.684924, -0.764789, -0.663435, -0.753441, 0.897580, -0.438494, 0.386680, 1.570047, 0.740675, 1.205045, 1.536454, 1.166785, 0.808877, 0.603508, -0.058897, 0.422106, -0.121172, -0.463114, 0.257012, -0.496268, 0.723779, 0.591003, 0.443473, 0.659200, -0.897477, 0.291395, -0.266139, -0.436875, 0.187040, -0.220879, -1.187069, -0.479737, -0.034083, -0.130499, 1.351539, 1.804551, 0.619753, 0.761259, 0.270975, -0.272635, 1.258690, -0.392129, 0.028471, -0.302119, 0.171662, -1.053917, 0.741964, 0.765235, -0.182645, -0.320924, 0.412030, -0.182656, -0.187234, -0.619476, 0.431225, 0.220852, 0.246707, -0.875954, -0.420024, -1.122080, -0.044749, 1.084241, 0.572703, 0.143256, 1.574042, 0.469405, 1.581832, -0.324737, 1.064342, -0.511301, -0.889519, -0.085861, -0.310554, -1.134514, 0.879512, -0.109939, -0.029419, 0.035301, -0.416640, -0.144257, 0.128410, -0.332118, -0.717311, -0.721006, -0.701654, -1.210416, -0.498281, -0.267074, 0.147715, -0.588234, 0.179510, -0.352591, 0.611766, 0.757663, 1.295872, 1.155578, -0.444683, -0.289606, -0.981873, -0.110397, 0.218058, 0.342293, 0.449702, 0.188632, 0.924861, 0.131709, 0.151026, 0.247155, 0.586840, 0.115024, 0.258494, -0.705398, -0.436962, -0.451408, -0.452921, 0.821196, 1.356848, 1.061985, -0.470271, 0.241763, 0.673842, 0.994496, 1.106657, -0.318312, 0.000706, -0.491332, -0.104887, 0.769830, 0.614448, -0.464928, 0.061739, -0.562736, -0.480449, 0.708473, -0.470952, 0.128449, 0.368539, 0.316067, 0.071928, 0.826162, -0.335479, -0.639047, -0.276173, 1.339810, -0.618834, 0.365865, -0.274306, 0.821593, 0.255325, 0.899930, 0.482650, 0.724641, 0.431063, -0.518218, 0.176338, -0.087529, -0.145107, 0.160774, -0.119493, 0.312595, -0.359954, -0.148862, 0.475723, 0.171491, 1.175289, 0.026846, 0.045676, 0.329002, -0.419682, 0.285520, 0.635654, 0.635096, -0.490823, 0.250522, 0.202844, 1.032448, 0.502881, 0.663211, -0.307633, 0.805295, -0.648250, -0.147006, 0.563631, 0.671219, 0.161528, -1.139949, -0.246566, -0.521132, 0.735265, 0.132824, -0.704990, 0.191499, -0.544627, 0.140330, 0.615041, -0.093552, -0.422924, -0.301587, 0.911218, 0.914270, -0.049328, 1.543950, 0.905814, -0.232610, 1.072381, 1.260106, 0.802959, 0.814664, 0.304872, -0.511138, -0.499422, -0.200262, -0.110791, 0.674010, 0.349585, -0.667950, -0.296576, 0.301808, 0.189559, -0.214089, 0.452921, 0.164626, -0.228286, -0.717360, 0.233242, -0.181401, -0.135119, 0.498692, 0.687442, -0.007401, -0.480606, 1.194747, 0.940571, 1.128136, 0.140772, -0.667467, -0.847277, 0.783150, 0.568089, 0.994055, -0.197524, -0.818603, -0.766695, 0.057332, -0.195596, -0.988051, 0.414777, 0.298776, 0.897844, -0.159779, -0.454704, -0.887731, -0.407849, -1.004194, -1.036727, -0.475787, -0.137052, 0.231511, 0.927859, -0.442881, 0.904923, 0.891058, 0.006126, 0.563162, -0.576472, -0.183475, -0.735410, 0.272764, -0.638140, 0.239643, 0.653961, 0.457819, -0.372612, 0.343705, 0.110776, -0.756652, 0.386313, 0.107503, -0.008796, -0.073815, -0.629235, -0.808140, -0.294173, -0.633595, -0.758396, -0.258173, -0.051930, 0.137732, 0.979790, 0.856388, -0.645793, 0.014175, 0.132367, 0.195222, -0.436998, 0.047249, -0.597753, 0.392621, 0.746263, -0.765120, -0.439100, 0.118566, 0.020332, -0.108875, -0.668688, -0.156153, 1.383671, 0.227761, -0.707157, 0.204107, -1.162802, -1.118589, 0.795204, -0.593250, -0.874184, -0.131148, -0.244764, -0.512483, -0.143153, 0.505874, 0.268601, -0.504840, -0.308462, -0.552664, -0.280323, -0.732410, 0.668095, -0.021762, 0.270601, 0.395358, 0.070142, -1.248513, 0.413219, -1.017059, 0.032132, -0.396024, 0.587790, -0.678120, 0.018814, 0.071379, -0.401795, 0.134482, 0.990950, -0.386356, 0.453362, 0.829851, 0.394379, 0.407540, 0.855610, -0.959356, -0.337002, -0.262528, 0.071233, 0.932031, 0.495110, 0.036341, 0.198851, -0.296111, 0.033338, 0.214657, -0.423282, 0.590993, -0.571794, 0.251939, 0.244078, 0.542655, 0.425170, -0.225517, -0.710553, 0.679697, 0.909711, -0.689191, 0.836267, -0.004778, 0.495458, 0.809475, 0.368078, -0.773708, -0.162396, 0.138200, 0.815106, 0.913919, 0.217262, -0.351987, -0.984006, -0.782359, -0.286462, 0.416191, 0.427930, 0.245382, -0.598290, 0.411221, -1.027307, -0.293045, 0.602665, 0.249456, 0.604354, -0.315574, -0.923030, -0.082775, -0.805772, -0.394888, 0.461436, -0.887015, 0.576617, -0.252016, -0.937395, -0.784839, -0.176452, -0.208446, 0.729628, -0.006532, -0.565254, 0.295684, 0.801969, -0.642424, 0.903517, 0.396516, 1.005450, -0.197504, -0.639117, 0.203634, 0.167229, 0.197131, 1.126208, 0.913814, -0.264833, -0.428867, 1.141819, -0.177895, 0.409215, -0.045089, 0.758689, 0.833469, -0.176152, -0.764739, 0.165712, -0.361765, 0.346877, 0.361066, 0.784692, -0.766699, -0.391257, 0.979521, 0.378305, 0.919687, 1.035804, 0.988101, 0.119555, -0.378226, 0.423859, 0.163197, 0.466828, 0.128361, 1.205314, -0.437407, 0.195734, -0.348479, -0.733815, 0.786304, -0.939004, 0.558666, 0.789775, 0.224329, 0.656972, 0.441908, -0.730598, -0.536267, 0.866684, 0.587903, 0.425446, 1.020974, 0.348986, 0.307805, 0.974750, 0.744027, 1.590500, 1.417730, 0.646862, 1.429784, 1.528705, 1.134393, -0.315159, 0.054935, -0.268187, 0.527418, -0.707379, -0.561674, -0.732278, 0.716443, 0.240115, -0.528095, 0.112957, 0.807219, -0.459927, 0.575014, 0.665692, 0.254615, 0.597154, 0.063271, 0.237212, 0.437323, -0.114176, 0.556932, 1.103634, 1.549781, 0.693358, 1.281842, 0.775437, 0.519592, 0.551413, 0.295114, 0.951862, -0.155977, 0.244726, 0.728046, -0.445241, 0.097601, 0.801900, -0.902259, -0.629144, -0.229319, 0.647132, 0.773484, -0.525307, -0.266967, 0.172216, 0.163928, 1.609946, 1.274832, -0.285421, -0.864192, -1.124538, -0.947500, -0.455907, -0.715063, -0.042396, -0.038726, 0.522524, 1.214798, -0.164680, -0.181323, 0.581716, 1.099588, -0.556283, -0.331701, 0.861972, -0.601529, -0.067413, 0.538424, 0.811141, 0.823681, 0.307903, -0.017003, -0.236879, 0.353766, 0.446827, 0.726810, 0.344652, -0.147691, -0.317624, -0.968882, -0.947463, 0.175158, -0.503522, -1.171320, 0.178799, -0.294103, 0.516953, 0.717233, 0.350846, 0.657919, -0.546856, 0.480621, -0.758034, 0.733522, -0.848662, 0.611018, -0.477908, 1.003326, 0.267538, -0.569110, 0.166301, 0.036211, 1.132543, 0.033555, 0.618257, -0.481117, 0.005554, -0.151391, -0.529210, -0.486202, 0.004430, -1.214210, 0.213269, 0.410642, -0.179502, -0.008824, -0.717417, 0.241674, 0.336993, 0.923853, 0.445957, -0.508716, 1.019908, -0.739798, -0.278254, 0.444219, 0.276562, -0.618379, 0.725962, 0.336788, 0.493217, 1.811073, 1.015046, 0.349916, 1.088685, 0.702212, 0.464538, -0.523975, 0.373305, -0.221611, 0.648583, -0.465399, -0.975868, 0.702183, -0.183450, -0.273189, -0.387111, 0.128509, 0.967436, 0.925961, 0.429873, 0.702109, -0.694841, 0.825955, 0.664234, 0.643016, 0.433751, 0.074399, 0.212870, 1.460104, 0.563725, 0.301437, 0.086020, 0.118286, -0.099458, -1.215533, -0.118670, -0.743171, -0.430146, -0.652087, 0.301517, 0.305985, 0.074042, -0.660218, -0.070631, 0.096492, 0.099510, 0.682326, -0.304800, 0.078970, 0.193678, 1.193133, 0.474984, -0.619822, -0.062398, 0.906720, 0.088433, 1.028219, 1.138557, -0.065311, 0.898181, 0.842235, -1.142611, -0.801616, -1.106287, -1.909590, -0.655781, -0.354224, -0.333141, -0.462087, 0.796087, 0.012626, -0.908936, -0.661762, -0.437994, -0.823601, -0.481483, 0.340606, -0.646149, 0.254583, 0.191214, 0.485090, 0.193740, -0.462848, -0.135348, 0.495778, 0.730264, 1.356830, 0.209903, -1.530480, -0.117272, -0.872202, -1.925444, -0.760961, -1.710443, -1.390306, -1.554276, -2.101877, -0.992124, -0.479582, -0.451469, 0.392787, -0.341382, -0.778292, 1.094011, -0.669709, 1.115703, 0.282123, 1.063235, -0.187408, -0.177339, -0.482924, 0.421370, 0.808585, 0.053034, 0.961368, -0.977064, -0.024780, -0.417940, -0.464886, -0.890541, -1.348833, -0.743421, -0.586244, -0.354029, -1.761722, -0.609845, -0.834211, 0.216530, 0.318028, 0.115659, -0.831622, -0.314635, -0.541529, 0.973783, 0.444141, -0.283405, 0.939219, 0.290982, 0.664875, 0.446432, 0.613239, 1.296750, -0.409314, -0.079021, 0.725718, 0.247228, -0.007767, -0.874054, 0.405152, -0.955479, 0.713881, 0.329680, -0.084103, -0.159829, -0.195433, -0.184822, 0.797912, -0.772221, -0.682011, 0.070826, 0.803843, 0.950313, -0.290242, -0.648178, 1.315627, 1.504034, -0.721347, 0.585357, -0.055162, 1.432736, -0.009528, 0.412296, 0.941469, 0.092653, -0.225274, 0.087770, -0.271385, 0.057073, -0.763516, -1.175697, -1.022171, -0.142625, 0.740781, 0.720618, 0.368119, -0.388446, 0.159164, 0.137444, -0.257400, -0.343394, 0.101784, -0.910449, -0.050292, -0.653189, -0.167405, -0.782565, 0.971803, 0.424846, -0.280458, -0.033472, 0.423480, 0.376914, 1.101701, -0.360496, 0.110118, 0.400777, 0.316576, 0.413215, -1.300262, 0.372059, -0.001529, -0.773283, -0.705765, 0.198423, 0.578825, -0.265073, 1.008337, 0.183039, -1.175503, -0.571851, -0.196273, 0.136780, -0.021423, -0.089040, 0.093695, 0.193559, -1.721378, 0.033544, 0.617089, 0.032206, -0.350503, 0.522129, -0.805478, -1.058208, -0.028543, 0.202805, -0.283024, -0.666529, -0.347461, -0.927803, 0.432592, 0.571549, 0.110689, 0.005965, 0.482600, -0.250969, -1.134282, -0.042870, -0.532249, 0.588736, 1.586238, 0.253240, 0.428754, -0.692711, 0.380656, -0.345203, -0.096643, 0.692761, 0.482374, -0.527499, 0.054401, 0.608197, 0.197443, -0.248786, -0.145997, 0.785906, -0.013431, 0.624599, -0.024677, -0.433989, -0.548382, -0.884563, 0.298302, 0.765668, -0.939636, 0.006142, -0.534720, 0.278843, -0.425484, 1.044366, 0.247410, -0.336125, 0.597617, 0.168329, -0.083739, -1.176113, 1.031689, -0.193255, -0.991152, 0.297475, 0.472072, 0.206822, 0.483534, 0.846193, 1.122071, -0.069622, -0.644843, -0.057702, -0.483374, -0.565962, 0.816918, 0.574723, 0.194096, -0.847812, -0.211385, -0.511005, -0.407326, -0.792320, -0.277185, 0.296303, -0.111359, 0.159616, -0.911118, -0.980184, 0.261314, -0.273324, 0.916874, -0.085983, 0.588487, -0.956620, -0.339430, -0.976954, -0.243933, 0.394639, 0.799621, -0.753653, 0.956355, -0.188097, 0.014358, -0.514715, -0.555959, 0.356346, -0.825384, 0.312441, -0.737232, 1.087724, 0.280693, 0.123302, 0.113143, -0.971621, -0.497462, 0.163843, -0.073814, 0.182521, -0.526405, -0.749203, -0.573791, -0.938024, 0.193103, 0.484843, 0.022083, -0.475797, 0.899422, 0.799627, 0.929066, 0.287896, 0.601203, -0.107283, -0.208187, 0.576798, 0.056006, 1.226696, -0.162016, 0.249838, 0.971771, 0.414841, -0.201215, -1.155230, 0.006650, -0.312888, 0.378221, -0.410752, -0.155202, 0.593537, 0.911271, -0.276287, -1.181258, -0.268592, 0.479752, 0.118730, -0.527971, 0.556511, 0.487297, 0.548196, 0.484394, -0.177135, 0.949491, -0.156117, 0.232227, 0.475734, 0.074947, 0.759604, -0.390018, 0.486386, -0.051596, -0.031961, -0.878603, -0.081453, 0.141804, 0.501450, 0.390481, -0.026745, -0.223761, 0.360837, -0.059390, -0.080988, 0.867060, 0.396658, 0.152113, -0.007434, -0.628313, -0.073384, 0.694163, -0.208594, -0.030490, 0.106670, -0.286620, 0.431106, 0.171832, 0.087894, -0.336829, -0.280759, -1.121362, -0.645024, -1.185345, -0.199645, -0.468396, -1.096226, -0.299249, 0.491098, 0.453827, -0.850403, -0.564887, -0.708217, -0.152383, -0.435911, -0.935874, 0.593058, 0.167209, 0.048349, 0.970184, -0.657099, 0.539187, 1.148243, -0.109919, -0.369872, -0.106989, 0.119473, -1.128602, -1.257677, -0.171474, -1.332407, -0.818622, -1.789396, -1.732479, -0.887726, -0.296433, -0.835533, -0.058949, 0.080411, 0.875979, -0.691440, -0.382952, 0.315755, 0.929620, 0.562982, 0.297741, -0.274278, 0.311964, 1.129985, 1.297354, 1.251525, 0.777968, -0.432057, 0.928862, -0.090575, 0.873285, -0.092182, 0.129767, -0.068726, 0.809325, 0.506855, 0.061740, 0.719135, 0.733668, 0.287186, -0.234597, -0.821908, 0.516028, -0.214060, 0.401462, 0.301480, 0.555012, 0.916290, -0.728608, -0.501840, 0.381871, -0.055637, 1.404799, 0.565889, 1.637954, -0.295318, 0.206524, 0.966964, 0.527521, 1.145727, 0.524128, 0.821554, 0.889727, -0.502597, -0.341457, 0.382781, -0.770440, 0.018233, -0.323541, -0.027682, 0.370343, -0.067273, 0.311333, -0.648576, -0.878363, -0.507556, 0.494790, -0.533127, -0.685039, 0.951085, 0.600586, 0.329782, 0.560080, 1.311551, 0.773274, 0.203945, 0.845195, 1.033884, 0.418998, 0.454474, -0.009169, 0.804701, 1.223973, 1.037628, -0.732300, 0.203304, 0.634479, -0.759071, 0.890452, 0.895225, -0.654670, 0.235341, -0.721492, 0.333576, 0.853123, -0.873700, -0.154334, -0.257454, 0.285057, 0.359688, -0.210183, 0.862748, 0.522159, 1.147869, 0.032833, -0.583494, 0.727799, 0.539070, -0.415466, 0.255643, 0.928966, 0.713274, -0.367298, 0.235128, 0.116705, 0.804572, -0.529389, -0.829404, -0.960095, 0.240013, 0.336331, 0.897266, 0.801531, -0.454217, -0.152468, 0.718866, -0.222152, -0.336041, -0.472405, 0.134845, 0.390419, 0.196027, -0.568488, -0.152294, -0.450652, -0.839750, -0.887505, -0.211974, 0.346686, 0.286720, -0.726979, -0.723396, 0.592081, 0.313941, -0.115523, -0.856987, 0.770698, -0.676242, -0.245316, 0.461881, 0.900455, 0.931467, 0.457202, -0.923960, 0.512269, 0.779611, 0.028990, -0.181668, -0.347396, 0.093886, -0.241525, -0.761931, -0.615955, -0.272288, 0.539639, -0.931017, 0.100819, -0.565291, 0.175845, 0.128756, 0.335915, 0.689524, 0.662992, -0.008811, -0.009091, -0.441249, -0.136021, 0.247324, -0.795256, 0.899152, 0.263896, -0.733503, 0.438910, 0.961608, 0.874153, -0.859763, 0.137412, -0.360123, -0.538235, -0.172994, -0.721035, -0.520573, 0.607809, -0.575358, 0.368407, -0.180928, -0.158428, -1.067831, -1.013874, 0.318215, 0.242757, 0.205393, -0.386975, 0.449480, 0.577471, 0.622615, -0.626169, -0.975673, -0.240913, -0.859379, -0.845956, -0.774370, -0.872791, 0.444227, 0.121777, -0.101848, 0.041556, -0.634258, 0.773774, 1.045917, 1.078395, -0.452723, 0.781179, 0.029698, 0.595802, 0.894100, 0.624963, -0.113067, 0.026786, 0.037323, -0.293857, 0.245976, 0.631665, -0.098298, 0.133885, -0.740184, -0.217277, -0.834353, -0.457451, -0.548372, 0.669861, -0.129904, -0.520905, 0.694480, -0.183839, 0.168708, 0.506576, 0.821144, -0.649208, -0.329256, -0.530953, 0.351861, -0.448237, -0.081348, 0.483380, -0.749797, -0.226452, -0.996863, 0.440480, -0.222004, -0.091864, 0.092465, -0.254256, -0.731022, -0.649294, -0.308948, -0.672094, 0.072566, 0.695936, 0.597188, 0.805533, 0.725502, -0.510925, 0.091276, -0.615544, -0.514096, -0.414758, 0.059810, -1.263603, -0.022428, 0.253651, -0.540470, 0.183312, 0.230187, 0.133071, 0.258593, 0.128316, -0.318925, -0.082534, 0.026561, 0.141989, 0.480268, 0.743476, -0.124387, 0.536328, -0.507180, 0.920744, -0.001967, -0.541634, 0.189333, -0.677462, 0.140049, 0.213424, -0.795103, -0.397828, -0.561876, 0.676947, -0.366865, -1.071689, 0.142883, -0.495893, 0.438758, -0.374718, -0.819980, -1.163498, 0.593118, 0.789287, -0.532403, 0.672526, 0.166626, -0.034579, 0.605372, 0.564803, 0.360861, 0.292546, -0.045006, 0.073364, 0.518108, 0.593655, 0.409263, -0.062387, -0.290812, -0.494967, -0.555160, -0.721099, -0.398561, 0.887545, 0.169363, -0.330929, -0.118120, -0.995037, -0.564668, 0.165397, -0.776088, -0.269957, 0.445737, -0.331582, 0.932376, -0.867141, 0.361070, -0.157294, 0.586996, -0.353823, -0.255156, 0.866571, 0.594636, -0.643007, -0.199823, 0.695952, -0.785718, -0.422311, 0.150777, -0.012095, -0.662898, -0.083786, -1.110300, -0.628758, -1.694527, -0.640888, -1.824674, -0.628615, -0.766734, -0.859618, -0.621229, 0.026640, -0.983846, -0.430208, -0.698494, -0.209673, -0.171111, 0.729052, -0.352962, -0.990547, -0.404302, -0.113898, -0.773832, -1.883502, -0.306187, -0.324538, 0.264845, -1.519918, 0.295976, -0.335428, 0.189586, -0.168985, -1.588736, -0.003431, -0.515086, -0.666717, -0.934096, -0.085054, 0.223821, -0.865465, -0.749268, -0.754529, 0.671178, -1.277972, -0.041593, -1.609174, -0.810676, -2.427706, -1.078333, -2.609136, -1.053447, -0.635607, 0.064422, 1.739747, 1.229120, -0.402410, -0.028675, 0.801773, -0.437968, -0.544956, -0.889210, -0.305469, -0.682663, 0.379690, -0.269243, -0.456118, 0.434774, -1.017273, -0.771940, -1.016871, -0.962339, -1.028604, -1.255700, -2.511338, -1.848840, -1.468496, -1.648987, -0.560154, -0.468001, -0.543836, 1.129261, 1.526497, 1.228924, -0.267217, -0.614407, 0.943269, -0.175938, 0.767806, -0.640899, -0.300503, -0.816398, 0.266556, -0.416704, 0.915957, -0.095204, -0.779703, -0.687918, -1.044481, -1.144608, -0.861696, 0.270038, -0.513755, -1.131421, 0.023119, -0.316784, 0.795432, -0.537718, 0.482715, 0.357510, 1.323743, -0.144719, 0.689022, -0.075274, 0.396355, 0.325025, -0.184421, -0.369764, -0.335032, 0.369551, -0.701194, 0.644692, -0.570601, 0.335326, 0.547496, 0.855520, -0.124592, -0.187158, -0.927187, 0.081026, -1.439556, 0.164814, 0.140359, 0.467794, 0.016844, 0.023428, 0.053949, 1.227444, 0.316354, 0.643619, 0.088003, -0.417115, -1.103529, 0.175853, 0.193708, -0.081104, 0.159539, 1.014522, 0.123220, -0.681866, -0.335243, -0.401743, -0.402666, 0.644636, 0.764209, -0.859977, -0.072603, -0.191177, 0.214386, 0.988325, 0.238897, -0.916799, -0.661304, 0.709671, 0.319144, 0.325488, 0.500850, 1.133538, 0.737561, 0.496590, 0.478292, -0.276910, -0.605768, 0.946314, -0.228153, 0.789292, 0.823520, 0.090523, 0.109815, 0.442742, 0.422501, 0.768369, -0.520160, -0.331522, 0.422929, -0.488266, 0.742959, -0.294744, 0.680928, -0.785457, 0.122182, 1.288117, -0.586404, 1.097858, -0.417977, 0.204719, 1.115832, -0.825532, -0.694229, 0.526336, 0.378261, 0.419245, 0.864877, -0.652302, 0.860543, -0.852952, 0.987348, -0.053678, -0.244306, -0.289404, -0.694564, -1.045281, 0.008200, 0.656939, 0.375422, 1.402243, 0.117555, -0.265487, -0.018358, 0.308607, 0.353734, 1.227353, -0.681078, 0.868524, 0.084933, 0.000241, -0.353707, 0.829077, -0.188663, 0.006777, -0.306530, 1.153962, 0.126468, 1.006491, -0.861045, -0.687303, -0.319316, -0.487294, -0.869481, 0.764103, 0.386076, 0.587195, -0.303860, -0.043052, 0.323182, 0.141958, -0.378319, -0.115431, 0.119735, 1.073328, 0.092007, -0.115559, -0.612369, 0.039883, 0.221668, 0.020127, 1.425233, 0.087035, 0.750112, 0.075017, -0.641022, -0.046240, -0.532030, 0.265026, -0.076288, 0.820836, -0.454395, 0.743596, -0.988351, -0.102716, -1.136838, -0.625740, -0.903239, -1.061579, -1.414635, -0.657749, 0.359359, 0.569276, -0.756292, -1.113890, 0.949455, 0.877040, 0.317475, 0.285287, 0.013102, 0.820250, 0.251876, 0.168576, 0.830270, 0.192695, -0.748236, -0.401142, 0.155533, -0.462731, 1.530860, 1.385274, 0.541327, -0.359478, 0.383091, 0.022353, 0.052085, -0.132831, -1.067426, -0.600061, 0.189595, 0.460353, -0.179386, 0.928000, 1.419800, 0.682625, 1.319715, -0.069704, 0.459575, 0.570499, 0.672376, 1.000500, -0.344920, 0.869749, -0.298665, 0.249461, 0.412045, -0.238414, 0.305855, 1.239029, -0.093643, -0.089010, 0.087865, -0.753499, 0.430801, 0.111903, 0.226645, 0.286851, 0.161704, 0.405159, -0.414765, 0.793236, 0.273353, 1.211417, -0.182362, 0.723506, 1.079347, -0.337554, 0.297932, -0.109463, 0.157813, 0.788559, 0.058752, 0.384163, -0.270894, 0.958071, -0.102788, 0.188340, 0.810565, 0.551992, -0.235234, 0.094717, 0.577491, 0.109717, -0.209393, -0.723704, 1.005107, 0.707099, 1.141210, 0.333143, -0.115181, 0.464038, 0.562375, 0.836191, 0.307107, 0.912159, 0.405237, -0.884779, -0.384829, -0.622029, 0.570016, 0.849765, -0.674911, -0.843387, 0.836631, 0.210988, 1.092227, 0.387673, 1.076941, -0.381889, 0.403795, -0.897101, -0.452269, -0.074072, -0.890976, -0.660519, -0.219299, 0.374902, -0.004893, 0.321303, 0.641160, 0.060977, -0.636338, -1.083550, -0.880094, -0.773192, -0.882083, -0.446288, -0.878313, 0.562450, 0.331461, 0.529467, -0.052115, 0.968784, 0.956251, 1.666910, -0.601172, 0.901987, -0.123663, 0.464915, -0.603971, -1.153994, -0.268147, -1.850156, -0.528083, -0.610361, -0.255620, -0.601116, -0.938695, -0.052256, -0.502528, -0.090532, 0.379590, -0.979226, 0.211677, 0.348085, 0.067307, 0.172928, 0.479238, -0.219628, 0.492480, -0.069159, -0.693300, 0.738508, 0.873978, -0.748479, 0.548714, -0.787255, 0.181402, -0.211080, -0.033984, 0.289374, 0.088949, 0.193867, -0.412231, 0.083426, -0.640567, -1.075435, 0.292309, -0.038910, 0.516793, -0.328544, 0.584905, -0.202370, 0.124402, -0.537887, -0.261645, 0.197745, -0.054146, -0.767362, -0.869615, -0.433759, -0.811823, 0.826348, -0.649927, -0.119776, -0.017864, -0.512058, -0.402764, -0.145591, -1.337771, -0.799741, -0.925037, -0.145291, 0.306069, -0.966774, -0.971659, -1.021942, -0.094807, -0.209441, 0.734063, 0.601664, 0.071607, 0.883023, -0.709044, -0.634249, 0.732248, 0.078276, -0.528108, 0.167388, 0.013558, 0.342396, 0.599529, -0.951996, -0.866247, -0.796629, -0.876604, 0.170573, 0.244285, -1.471361, 0.316955, -0.203997, -0.453761, -0.947898, -1.097421, 0.816637, -0.443835, 0.060201, -0.324724, -0.781965, 0.584985, 0.807542, -0.247575, -0.563308, -0.391273, -0.086086, -0.291275, -0.718207, -1.025233, -0.840692, -0.924251, -0.258673, 0.498493, 0.483619, 0.715759, -0.939713, -0.597679, 0.441392, -0.786735, 0.827895, 0.457929, 0.296501, 0.611179, 0.295078, -0.956926, 0.895731, -0.156911, 0.184685, -0.547066, 0.708690, -0.808374, -0.322540, -0.704616, -0.198073, -0.457347, -0.736459, -0.073122, -0.664298, 0.964890, -0.975059, -0.750325, 0.551758, 0.709109, 0.692971, 0.165187, 0.453594, -0.772680, -0.748467, 0.757865, 0.257503, 0.708535, -0.943734, 0.291689, -0.503399, -0.340693, -0.913220, 0.208035, -0.086440, 0.708614, 0.516787, 0.162420, 0.201189, -0.650706, 0.230397, -0.668876, -0.378442, 0.144551, 0.493804, 0.253188, -0.023952, -0.811279, 0.829994, -0.629111, 0.808903, -0.456508, -0.540247, -0.438352, 0.853807, 0.796494, 0.435783, -0.180936, -0.266508, -0.490402, -0.600643, -0.438633, 0.259511, 0.217997, 0.978741, -0.045161, 0.861220, 0.442675, -0.060029, 0.184364, -0.112319, 0.859656, -0.387846, -0.241006, 0.766283, -0.018296, -0.358385, 0.522948, 0.812386, -0.637451, -0.514504, 0.589572, 0.174603, -0.312448, -0.680498, 0.751396, -0.498471, -0.091099, 0.956754, -0.433939, 0.091094, 0.167565, 0.251041, 0.502906, 0.965461, 0.026188, -0.588320, 0.510767, -0.308988, 0.120004, 0.598426, 0.883174, -0.144441, -0.174500, 1.300039, 0.432861, -0.267078, 0.315305, 0.034666, 0.615626, -0.690746, -0.171614, -0.927401, 0.214327, 0.462949, -0.842715, -0.958945, -0.094822, 0.093462, -0.175446, -0.447630, 0.015521, -0.704121, 0.648751, -0.542588, -0.224401, 0.353450, 0.154326, 1.082489, 0.179242, 0.043651, 0.799453, -0.120497, 0.813898, 0.334561, -0.600950, 0.376226, -0.697031, 0.221569, 0.132190, -0.064305, -0.183480, -0.708946, -0.100549, 0.235788, 0.625452, 0.331268, -0.126386, -0.864487, -0.182205, 0.618914, 0.710424, -0.211738, 0.949413, 0.962293, -0.402798, 1.141282, 0.944390, 1.372802, 0.180823, 0.630068, 1.236055, 0.599063, -0.227622, 0.178447, 0.648367, -0.087600, -0.369749, -0.895149, -0.111785, -0.252634, -0.358749, -0.385838, -0.017334, -1.006486, -0.027873, 0.330130, -0.079480, -0.168454, -0.259124, -0.038879, -0.073079, -0.307659, 0.309146, 0.466172, 0.166719, 0.135926, 0.997069, 1.054631, 2.212706, 1.171591, 0.122786, 0.785692, 0.519359, -0.181125, 1.032126, 0.553962, -1.402951, 0.668673, -0.275920, -0.677324, 0.057494, 0.222657, 0.970651, -0.311921, 0.460128, 0.333944, -0.779425, -0.318638, -0.222920, 0.608443, -0.753739, 0.099034, 0.951892, 0.436370, 0.831476, 0.850767, 2.245711, 0.570054, 1.123056, 0.594415, 0.240755, 0.161821, -0.702758, -0.064725, -0.592005, 0.194570, -0.234049, -0.064356, -0.652780, -0.451884, 0.516910, -0.999588, -0.631091, -0.106025, 0.477276, -0.280146, -0.112224, 0.138462, 0.412938, 0.053495, 0.634461, -0.126127, 0.284757, 1.487156, 2.194566, 0.399142, 1.308012, 0.914641, 1.040184, -0.071107, -0.095784, 0.837883, 0.107459, -0.790273, 0.136949, -0.456383, 0.119093, 0.209858, -0.439598, 0.164490, -0.861804, 0.624139, 0.552512, -0.420295, -0.046553, -0.907931, -0.838314, -0.224457, 0.625627, -0.573246, 0.985402, 0.640556, 0.938704, 0.079480, 0.325304, -0.217354, -0.414011, -0.386794, 0.214712, -0.039592, -0.592751, 0.328428, 0.762196, 0.912965, 0.143295, -1.015550, 0.749135, -0.924210, -0.567775, 0.565126, -0.597251, 0.183835, 0.557297, -0.213828, 0.566887, 0.186742, 0.233017, -0.146824, 0.887508, 1.667323, 0.819362, -0.456547, -1.148052, -0.050325, -0.091721, 0.428084, -0.732969, -0.211466, 0.714688, -0.510802, 0.108031, -0.900440, 0.658667, 0.887790, 0.192459, -0.856554, 0.093213, -0.918214, -0.197538, -0.493837, 0.478638, 0.493388, -0.713419, -0.903803, -1.368813, -0.045464, -0.468665, -0.264814, -0.056176, -0.304556, 0.032033, 0.373304, -0.360927, 0.886519, -0.432608, -0.392543, -0.223182, -0.979726, 0.180223, -0.668717, -0.128490, -0.870028, -0.775871, 0.511285, -0.793903, -0.496178, 0.129341, -0.393402, 0.158360, 0.352631, 0.248221, -0.454832, 0.040257, -1.428807, 1.039136, 0.313910, 0.721283, -0.656876, 0.170480, 0.049924, 1.118112, 0.570291, 0.449332, -0.102342, -0.844805, -0.001937, -0.505710, -0.545627, 0.468104, -0.197489, 0.033038, -0.037766, -0.902323, -0.371416, -1.251300, -1.287594, -0.618595, -1.299928, -0.351480, -0.412188, -0.626600, -0.001576, -0.155052, 1.166868, 0.631350, -0.751061, 0.298527, 0.644923, -0.296058, -0.034475, -0.209813, 0.186572, -0.975742, -0.703449, -0.292791, -0.903305, -0.113425, -0.196841, -0.180302, -0.541910, 0.628107, -0.171736, -1.299629, 0.151380, -0.567277, -0.479001, -0.504752, -1.005794, -0.731779, -0.772734, 0.781802, 0.356491, 0.197718, 0.420061, -1.109738, 0.384687, -0.030179, -0.434174, -0.145987, 0.527708, -0.984943, -0.292651, 0.259846, -0.509486, -0.387616, -0.693202, -1.009859, 0.022378, -0.925713, 0.458114, -1.156078, -0.649493, -1.028042, 0.472849, -0.398946, 0.077442, -0.334387, -0.925854, 0.001344, -0.329340, -0.788844, -0.057425, -0.293596, -0.077859, -0.458591, 0.006897, 0.156298, -0.271537, 0.147132, -0.453019, -0.349330, -0.175720, -0.982305, -0.663268, 0.230256, -0.716995, -0.556204, 0.182657, -0.917965, 0.855026, -0.222017, -0.035128, -0.376597, 0.478295, 0.256517, -0.350695, -0.331241, -0.173866, -0.644582, -0.752992, -0.858260, -0.418568, -0.206228, -0.263811, -0.607651, 0.863257, -0.839942, -0.415125, 0.589814, 0.722871, -0.597432, -0.208021, 0.196149, -0.743266, 0.549124, 0.230020, 0.581102, -1.095806, -0.205777, -0.298443, -0.488504, -0.030283, 1.083288, 0.193287, -0.397041, -1.088602, -0.321939, -1.169048, 0.121518, -0.152987, -1.091710, 0.363577, -0.147291, 0.561026, 0.372105, 0.415582, 0.263348, -0.931512, 0.388250, 0.410913, 0.358519, 0.622145, 0.426972, -0.361889, -0.227146, 0.400451, -0.313820, -0.381348, 0.698696, -0.316740, 0.507952, -0.107678, -0.019351, -0.667144, -0.460930, 0.412459, -0.873390, 0.852815, 0.672697, -0.267743, 0.716093, 0.274600, 0.251152, 0.168947, -0.242130, -0.493504, -0.767362, 0.080948, 0.701814, 0.080275, -0.362111, -0.097085, 0.719092, 0.549960, -0.859641, -0.906423, 0.091795, -0.383900, -0.493995, -0.401743, -0.296784, 0.112974, -0.742439, 0.194606, 0.422093, 0.032064, 1.403093, 0.362972, -0.071803, 0.095237, 0.333990, -0.348648, -0.320334, -1.039506, -0.096111, -0.979990, -0.816419, -0.969266, 0.930267, 0.015024, 0.270482, -0.574976, -0.441698, 1.219997, -0.336313, 0.594041, 0.333208, 1.053268, -0.727733, 0.419824, 0.241304, -0.354343, 0.283546, 1.000277, 0.305036, 0.607681, -0.428843, -0.129135, 0.572749, -0.277677, -0.402618, -0.521015, -0.835924, -0.903913, 0.352639, 0.424658, 0.776492, -0.463809, -0.538642, 0.213729, 1.268318, 0.469393, 0.404829, 0.072102, 0.643776, 0.842283, 0.564564, -0.094887, 0.945598, 0.084317, -0.013333, -0.409226, -0.491995, -0.465566, -0.249817, 0.186120, 0.248459, 0.474439, 0.691730, -0.777795, -0.749455, 0.890480, -0.058557, -0.343548, 0.448437, -0.042761, -0.737855, 0.301021, 0.429022, 0.978130, 1.056552, 0.630481, 0.287759, 0.564665, 0.203711, -0.412468, -0.024559, 0.667308, 0.248287, -0.066301, -0.604335, -0.059388, -0.109399, 0.293273, 0.688693, 0.117427, -0.138941, -0.109649, 0.948037, 0.840005, -0.801987, 0.331274, -0.027707, -0.522048, 0.661741, 0.190339, 0.110536, 0.769959, 0.087034, 0.541709, -0.028769, -1.127329, -0.352353, -0.378150, -0.489503, -0.962556, -0.337821, -1.262425, -0.888860, -0.852595, -0.222428, -0.238641, -0.670640, -0.159347, 0.159325, -0.214030, 0.642157, 0.958436, -0.560163, -0.667725, -0.668108, -0.167505, -0.099293, -0.148435, -0.329438, -0.597165, 0.093707, 0.263942, 0.907846, -0.458116, 0.134360, 0.610489, 0.338601, 0.538964, -0.183104, -1.080581, 0.786886, -0.849934, -0.312823, -0.053353, 0.383479, 0.261167, 0.650325, -0.009956, -0.628176, 0.528161, 0.799586, -0.563296, -0.162770, -0.976401, 0.103888, -0.515138, -0.131949, 0.701879, 1.368449, 1.180625, -0.630106, 0.729859, 0.672776, -0.554182, -0.195117, 0.164980, 0.719256, 0.134443, -0.143705, -0.945468, 0.771500, -0.456023, 0.504961, -0.689322, 0.559279, 0.847018, 0.978334, 0.216418, -0.441311, -0.123401, 0.372665, -0.039304, -0.064764, -0.446784, 0.910308, 0.753736, -0.620839, 0.341725, 0.235435, 0.432376, 1.239016, 0.915555, 0.379610, 0.856895, -0.266831, 0.775530, 0.471929, -0.501049, -0.371462, 0.726777, 0.529663, -0.100474, -0.061463, 0.717202, -0.256681, 0.063587, -0.018797, -0.253822, 0.693419, -0.071544, 0.622278, 0.026722, -0.470256, -0.202529, -0.033104, 0.084692, 0.455183, -0.175296, 0.594394, -0.416406, 0.812232, -0.282185, -0.707976, -0.359734, 0.491319, -0.051719, 0.889967, -0.426973, -0.626845, 0.879076, 0.644663, -0.150822, 0.537052, -0.246456, -0.827505, 0.118741, -0.649614, -0.918282, -0.443130, 0.747327, 0.059749, 0.609180, -0.997238, -0.171744, -0.567123, 0.639831, -0.986369, 0.697124, -0.125927, 0.924175, -0.759245, -0.958631, -0.746225, -0.247354, 0.131970, 0.313738, -0.572733, -0.351655, 0.270612, -0.703013, -0.293725, 0.660790, 0.789167, -0.248027, 0.227422, -0.833523, -0.820426, 0.547649, -0.078362, -0.609667, 0.834634, -0.331948, 0.078859, -0.318148, 0.765593, -0.657754, 0.172853, 0.579510, -0.527998, 0.994523, -0.853845, 0.880987, -0.566933, 0.688380, -0.588054, -0.191818, 0.728311, -0.078100, -0.080553, 0.037302, 0.198462, 0.282541, 0.263343, 0.563181, -0.492301, -1.001684, 0.839363, -0.911399, -0.456140, -0.663524, -0.608882, -0.832783, -0.595780, 0.144906, 0.316369, 0.748841, -1.019360, -0.412320, -0.277749, -0.777366, -0.231725, 0.178041, 0.472844, 0.536273, 0.213752, -0.726785, -0.826157, 0.822913, 0.741256, 0.093296, -0.115098, 0.097104, 0.438082, -0.099650, -0.510083, -0.491278, 0.027414, -0.413505, -0.097371, 0.683489, -0.616193, -0.551793, -0.040962, 0.515507, -0.582160, -0.068635, -0.725734, 0.677032, 0.352780, 0.110252, 0.815853, 0.753494, 0.124146, -0.554214, -0.909233, -0.494556, -0.048727, 0.589402, -0.012949, -0.937254, -0.048683, 0.201834, -0.317542, -1.013784, -0.428127, 0.309052, -0.239764, 0.132062, 0.323232, -0.174149, 0.558274, 0.358593, 0.458882, 0.760398, -0.251334, -0.567626, -0.276181, -0.194592, 0.772074, 0.850606, -0.095571, -0.261203, 0.709839, -0.516236, -0.779034, -0.173289, 0.606680, -0.422988, 0.070589, -0.843948, 0.686566, -0.032174, 0.020540, -0.280223, 0.638931, 0.577929, 0.452357, 0.800776, 0.374837, 0.266414, -0.293410, 0.244330, 0.385295, 0.395438, 0.624846, 0.125942, 0.630085, -0.595108, 1.024901, 0.993567, 0.936053, 0.345764, -0.286876, -0.473550, -0.338014, 0.722282, -0.237997, 0.323341, -0.660688, 0.736098, 0.741374, 0.335099, 0.189746, 0.866016, 1.251163, 1.213151, -0.081986, 0.395251, 0.669522, 0.714587, 0.598174, 0.177542, -0.064009, 0.053919, 0.846888, 0.693072, 1.109140, -0.105948, -0.029176, 0.493320, 0.226347, 0.396817, -0.807443, 0.396297, -0.062610, 0.409804, 0.000409, -1.156591, 0.180343, 0.797589, -0.814378, 0.925070, 0.207404, 0.519334, 0.791652, 0.415622, 1.232334, 0.074252, -0.001630, 0.777665, 0.305829, 0.808184, -0.138028, 0.751566, 0.066126, -0.520144, 0.745765, -0.395758, -0.378365, -0.415200, 0.335347, 0.794406, 0.551167, -0.513040, 0.145654, -0.221568, -0.130619, -0.152115, 0.272040, 0.008292, -0.494834, 0.954184, 0.962355, 0.736993, 0.908840, 0.839480, 1.059200, -0.393768, 0.750020, 0.995272, 1.298121, 1.017238, 0.483584, 0.728346, 0.587143, 0.245279, -0.578041, -0.945475, -0.649641, 0.135780, -0.201621, -0.001466, 0.326668, -0.521641, 0.778371, -0.668343, 0.012854, -1.044247, 0.890732, -0.166160, 0.578606, 0.759508, 0.922548, 0.318297, 1.336977, 1.084394, -0.553250, 0.322512, 0.661803, 0.332534, 0.248335, 1.044827, 0.290340, -0.618848, -0.347317, -0.356621, 0.375856, -0.530488, -0.500133, -0.014678, 0.270713, -0.073430, -0.559384, -0.144310, 0.405070, -0.421764, 0.313787, 1.061830, -0.663343, -0.709026, 0.446672, 0.845191, -0.397756, 1.025018, 0.361804, -1.185111, -0.641211, 0.532685, -0.148595, -0.744407, 0.924261, 0.658082, -0.932512, 0.565407, -0.051707, -0.544143, -0.311327, -0.386406, -0.090527, -0.789728, 0.010578, -0.865285, -0.821638, -0.217859, -0.710568, -1.220830, -0.714837, -1.170790, -0.166823, -0.340347, 0.077376, -0.151096, -0.677049, 0.248833, -0.072309, -0.082670, -0.034016, 0.007041, -0.441335, 0.500121, 0.948667, -0.822178, -0.173109, -0.959372, -0.755300, 0.270982, 0.311672, -0.364964, -0.526664, 0.238184, 0.172164, -0.042883, -0.085482, -0.986001, -0.310986, -0.749090, -0.861247, -0.019570, -0.656231, -0.529756, 0.408149, 0.192419, 0.652906, -0.074435, -0.029940, 0.728257, -0.312619, -0.812623, -0.236396, -0.535084, 0.884998, -0.187308, -0.780646, 0.489181, -0.255076, 0.443424, -0.331631, 0.894219, -0.153693, 0.311278, 0.195006, 0.069836, -1.551918, -0.090068, -0.549533, 0.067772, -1.089583, -0.122306, -1.000075, 0.524019, -0.403043, 0.706175, -0.316424, -0.156280, -0.032054, -0.806953, -0.390195, -0.506007, 0.622914, 0.333781, 0.259990, -1.003182, 0.463106, 0.127896, 0.337702, -0.340596, -0.487628, -0.295225, -0.670385, -0.105965, -1.310702, -1.530462, -0.955482, -0.854863, -0.802638, 0.975080, 0.777302, -0.435821, -0.315640, 0.136026, -0.956778, 0.583809, -0.598374, 0.519967, 0.090587, 0.582396, -0.261816, 0.261381, -1.531779, 0.467700, 0.281071, 0.576446, -0.219672, 0.636111, 0.196550, -0.056322, -0.884366, -0.956906, -0.360765, -0.979095, -0.301504, -0.111014, -0.101910, 0.607854, 0.141894, -0.443908, 0.708072, 0.209887, 0.478744, 0.329678, 0.085715, -0.697579, 0.317557, 0.176550, -0.988214, -0.527775, -0.754774, -0.623753, -1.556688, -0.573788, -0.129186, -0.260427, 0.659873, -0.295478, -0.398849, -1.231612, -1.405801, -0.625996, -0.743083, -0.450685, 0.930303, 0.554435, -0.068752, 0.179991, 1.090145, 0.781063, -0.798145, -1.140819, -0.222424, -0.911572, 0.542691, -0.587325, 0.504975, -0.562976, -0.505772, -1.090203, -1.842334, -1.142818, -1.543451, -1.510605, -1.233246, -2.211091, -1.287517, -0.876689, -0.511624, 0.205175, 0.402338, 0.677743, 0.360725, -0.230297, 0.445124, -0.581156, 0.468049, -0.718265, -1.293324, -1.062285, -0.792477, -0.564579, 0.484089, 1.053049, 0.977476, -0.154390, -0.038786, -0.005780, -0.932652, -2.182168, -1.917078, -2.643455, -3.121677, -2.696973, -1.595279, -1.468488, 0.030692, -0.263166, 0.322244, 0.642177, 0.255131, 0.721384, -0.582696, -0.792756, 0.340179, -0.786722, -0.062353, -0.261129, 0.428966, 1.001561, -0.360860, -0.717297, 0.631029, -0.043192, -0.191961, 0.247963, 0.177962, -0.187027, -0.380431, 0.276477, -0.717575, -0.475631, -0.385200, -0.458936, 1.309565, -0.197715, 0.848463, -0.356888, 0.375990, -0.625372, -0.294049, 0.248216, -0.391519, -1.062864, 0.367418, 0.677055, 0.107724, -0.322194, 0.547109, 0.585698, -0.236440, -0.127257, 0.820824, 1.025951, 0.497591, 0.692206, -0.197597, 1.468274, 1.165210, 0.603888, -0.161545, 0.249362, -0.519139, 0.591995, -0.362215, 0.089951, -0.369426, 0.073302, 0.270438, -1.102165, -0.789756, -1.405406, 0.263490, -0.886890, 0.455703, -0.684581, 0.555292, -0.501661, 0.220333, 0.437588, 0.084521, 0.708625, 0.050476, 0.373969, 0.315570, -0.299911, 0.152782, 0.433261, 0.719823, -0.052359, -0.149914, -0.346887, -0.017306, 0.163119, 0.175807, 0.189903, -0.942176, -0.685559, -0.248726, -0.861952, 0.387243, 0.220597, 0.577171, -0.750086, 0.726415, 0.369142, -0.268783, 0.257296, 0.629187, -0.912596, -0.054800, 0.694135, -0.056529, 0.130236, 0.369410, 0.518304, -0.213900, 0.373871, 0.856863, 0.295777, -0.362412, 0.355142, -0.262363, -0.522095, -0.659509, 0.049951, -0.926938, -1.130485, -0.737458, 0.176310, -0.748783, 0.345496, -0.185073, 0.336817, 0.392356, 1.171114, 0.888608, -0.349194, 0.736574, 0.033348, -0.126466, -0.201089, 0.203932, -0.332105, 0.708874, -0.237817, 0.014191, -0.046849, -0.314004, 0.145839, 0.694722, -0.752636, -0.441979, -0.550645, -0.125854, -0.753424, -0.571618, 0.641703, -0.941935, -0.350509, -0.299773, -0.476155, -0.607769, -0.128007, -0.686110, -0.389894, 1.250229, 0.229689, 0.567277, 0.774090, 0.578048, 0.107280, 0.397195, 0.142745, -0.564574, 0.769253, 0.414293, -0.498064, -0.340755, -0.746981, -0.426396, 0.234735, 0.233279, -0.807950, 0.798992, 0.885505, -0.513611, -0.548472, 0.175572, -0.424325, -0.414734, -0.724592, -0.822403, -0.496139, 0.099296, 0.596931, -0.397153, -0.017515, -0.441448, -0.317225, -0.168435, -0.670224, 0.001844, -1.490723, -0.115732, -0.907971, -0.668472, -0.191356, 0.780389, -0.320629, -0.865953, 0.563958, -0.514459, 0.547831, 0.678748, 0.912921, -0.305079, 0.157485, -0.287508, 0.948201, 0.348630, -0.318030, -0.199263, -0.726541, -0.776812, -0.037757, -0.753234, -0.899013, -1.366931, -0.031465, -1.058124, -1.049440, -0.446362, -0.327186, 0.378763, -0.821005, -0.370568, -0.370684, -0.044551, -0.006405, 0.312130, 0.797825, -0.186303, -0.121959, -0.195976, 0.526005, -0.470695, -0.050042, 0.513530, -0.149463, -0.071082, 0.301355, 0.556998, -0.801870, -0.648727, -0.340739, -0.087092, -0.032982, -0.536582, -0.985319, -0.061043, -0.225521, 0.636829, -0.845611, -0.920546, 0.585435, -0.122875, -0.017353, 0.794947, 0.775904, -0.822097, -0.815660, -0.142350, -0.055720, 0.158140, -0.885196, -0.315564, -0.304871, -0.940452, 0.094870, 0.293657, -0.854713, -0.992761, -0.465280, -0.163322, 0.472818, 0.425618, 0.658891, 0.907103, 0.555784, -0.674909, -0.726731, 0.661377, 0.660035, -0.325449, 0.169771, -0.481766, -0.444250, 0.346091, 0.996745, -0.157171, 0.073355, 0.642819, -0.250412, -0.931364, 0.646701, -0.131227, -0.660454, 0.129167, -0.839932, -0.041712, -0.540231, -0.624377, 0.167141, -0.529661, -0.048052, -0.896467, -0.458353, -0.191158, 0.523505, -0.857643, 0.640674, 0.398972, -0.239661, 0.289415, 0.195230, -0.539109, -0.459515, -0.146882, -0.754015, -0.841064, -0.841473, 0.638856, 0.309178, 0.251271, 0.198333, 0.506261, -0.872728, 0.191889, -1.019010, 0.542301, 0.156877, -0.147885, 0.730775, 1.017835, 0.129164, -0.248910, 0.181124, 1.058159, -0.246335, 0.380534, -0.078867, 0.944553, 0.136516, 0.014232, -0.281456, 0.057269, -0.606590, -0.277116, 0.927540, -0.162373, 0.881783, -0.978196, 0.482331, -1.133032, -0.257778, 0.102408, -0.935164, -0.278660, -1.330087, 0.299431, 0.206137, 0.308396, 0.300319, 1.034230, 0.541895, 1.447640, -0.131935, 0.090952, -0.693024, 0.523151, 0.756523, 0.117775, 0.019971, -0.327622, -0.272726, 0.882652, -0.408354, -0.818411, -1.105221, 0.421804, -0.079521, -0.228876, -0.186307, -0.382341, -1.799874, -1.223630, -0.554537, -0.348458, -1.509077, -0.951357, 0.250762, -0.978470, -0.086353, 0.312999, 0.872172, 0.693329, -0.741690, -0.838141, -0.195594, 0.512206, -0.837389, 0.813072, 0.133807, -0.483738, 0.248921, -0.394619, 0.523250, -0.930536, -1.153354, -1.490443, -0.916065, -1.282144, -0.428686, -0.354505, -0.559642, -0.929040, 1.083372, 0.072775, 0.221745, -0.643557, -0.109090, 0.960910, -0.171984, 0.214731, 0.196469, 0.985875, 0.045330, 0.497900, 0.934551, -0.250984, 0.017655, -0.219781, 0.135746, 0.873693, 0.681160, -0.873017, -0.206150, -0.169731, -0.771566, 0.559688, -0.628788, -0.350648, -0.377058, -0.891711, -1.333392, -0.724865, -0.262516, 0.343324, 0.493357, -0.343734, 0.156911, 0.470834, -0.530469, 0.187653, -0.060435, 0.173071, 0.605598, -0.686279, -0.226244, 0.562618, -0.734285, 0.180021, -0.020845, -0.325212, -0.312327, 0.385901, 0.576819, -0.564441, -0.113830, -0.083935, -1.890345, -1.872646, -1.353012, -0.795230, -1.168397, 0.144320, -0.751668, 0.902555, 0.836535, 0.717743, 0.056202, -0.227026, 0.924586, -0.264193, -0.569875, -0.749016, 0.694882, -0.363191, 0.784907, 0.246384, -0.596037, 0.665324, 0.231732, -0.063836, -0.431512, 0.370559, -0.577443, -0.971973, -0.636493, -1.873548, -0.822621, -0.086015, -0.808222, -0.495307, 0.317411, -0.722477, 0.535736, 1.063692, -0.484398, 0.780976, -0.498205, 0.399575, 0.626021, 0.009499, 0.210499, -0.566892, 0.065766, -0.271109, 0.998195, 0.933366, 0.772017, -0.468974, 0.809988, -0.625821, 0.028070, -0.413680, -0.859969, -0.669423, 0.144675, 0.094792, -0.812363, 0.207331, 0.129265, -1.242585, 0.257150, -0.393373, 0.380851, 0.254455, -0.292701, 0.074854, -0.717248, 0.749181, 0.544152, 0.966058, -0.227065, -0.218882, -0.356145, 1.065261, -0.321450, 1.173265, 0.413043, 0.223028, 1.278194, 0.279646, -0.742514, 1.346251, 1.116833, -0.427517, -0.536340, -0.731216, -0.896517, -0.246791, -0.453930, 0.449864, 1.014242, 0.281990, 0.830187, -0.106191, -0.407205, -0.634756, -0.389687, 0.899760, -0.570625, 1.279788, -0.331063, 0.359140, 0.595772, 0.089042, -0.189654, 1.253873, 1.987896, 0.847121, -0.027577, 0.794086, -0.356598, -0.625348, -0.481435, -1.537960, -0.722904, -0.626223, 0.451378, 0.801987, 0.777745, 0.747426, -0.515391, 0.685534, -0.040354, 0.953222, 0.057296, 0.141553, 0.861169, 0.986123, 0.794089, 0.507119, 0.132986, 1.448101, 1.407901, 1.092768, 1.184071, -0.163269, -1.191050, -1.165331, -0.772549, 0.502650, -0.085071, 0.047776, -0.180009, 0.235793, 0.702637, 0.958544, 0.890256, -0.549465, 0.666338, -0.187780, -0.734250, 0.737723, -0.451717, 0.857226, -0.229193, -0.215724, 0.056907, 0.068915, 1.080491, 0.478803, 0.888814, 1.600242, -0.069803, -0.340586, -0.209297, 0.137242, -0.243593, -0.789536, 0.398106, -0.441115, -0.282022, 0.870963, 0.824310, -0.260464, 0.413221, -0.353034, 0.564775, -0.481969, 0.898350, -0.160533, 0.114929, -0.051778, 0.934156, 0.571589, 0.628805, 0.214029, 0.369823, 1.018580, 0.811988, 0.504203, 0.535900, -1.104227, -1.074360, -1.032195, 0.088451, -0.035182, -0.164288, -0.524840, 0.745656, 0.809510, 0.674998, -0.397144, 0.674809, 0.160757, 0.101284, 0.619375, -0.194353, -0.282798, -0.588215, -0.874420, 0.002218, 0.551589, 0.985421, 0.650110, 0.751971, 0.354938, 0.087946, 0.293434, -0.040682, -0.758473, 0.232068, -0.683241, -0.135015, 0.999358, -0.433877, -0.496511, 0.597048, 1.558530, 1.504714, 0.866698, 0.240423, -0.419310, -0.527858, -0.632484, -0.869555, 0.010667, 0.081929, 0.604059, 0.631296, 0.488864, -0.105390, -0.053374, 0.277572, 0.590070, -0.724688, -0.572730, 0.169025, -0.364756, -0.297983, 0.414887, 0.624283, 0.325852, -0.744509, 0.881375, 0.553577, 0.284177, 0.373280, 0.865731, 0.280500, -0.451973, 0.879522, -0.848954, -0.110801, -0.577875, -0.023960, 0.400730, -0.167736, 0.147876, -0.401301, -0.547404, 0.382004, -0.261896, 0.285552, 0.045554, -0.065991, -0.171628, -0.779234, 0.477978, -0.356634, 0.050488, 1.154354, 0.959611, 0.292989, 0.101237, 0.503669, -0.581263, 0.212102, -0.947700, 0.500226, 0.359872, -0.001546, 0.238801, -0.934245, -1.043080, 0.589850, -0.198376, 0.031916, 0.724405, 0.230477, 0.283225, 0.675808, -0.575131, -0.713847, 0.897610, 0.363760, -1.030038, -0.331555, -0.167397, 0.973352, 0.394410, 0.279040, -0.369131, 0.332516, 0.552199, -0.017213, 0.068916, -0.535387, 0.554603, 0.205233, 0.356591, 0.318830, 0.367592, 0.478685, 0.196438, -0.096210, -0.941375, -0.793952, -0.210866, 0.434384, -0.339887, 0.476928, 0.493986, -0.674191, 0.410326, 0.372520, -0.894699, -0.023868, 0.198098, -0.607597, 0.063800, 0.449687, -0.923347, -0.135896, -0.962362, -0.690252, 0.560961, -0.715009, -0.638788, 0.229200, 0.583785, -0.566336, 0.417106, -0.577182, -0.984382, -0.023805, -0.089625, -0.884660, -0.471137, 0.073410, 0.704554, 0.332781, -0.692790, 0.740711, 0.735797, 0.421262, -0.656906, 0.190146, -0.616163, -0.261456, -0.241445, 0.838398, -0.403188, -0.684193, -0.208450, 0.063273, 0.340289, -0.099903, 0.116281, 0.253693, -0.164804, -0.632160, -0.346526, 0.385374, 0.773752, 0.532993, 1.487977, 0.565943, 0.549775, 0.478982, 0.295339, 0.673288, 0.304284, 0.520902, -0.162372, -0.915274, 0.159681, 0.877019, 0.712185, -0.899102, -0.314368, 0.898083, 0.912944, 0.490041, 0.321878, 0.750899, 0.327210, -0.637442, -0.937853, 0.556079, 0.366902, 0.102958, -0.390223, -0.583789, 0.395607, -0.734433, 0.760202, 1.002845, 0.428081, 0.797717, 0.343778, -0.507965, 0.904167, 0.977221, 0.690438, -0.459575, 1.112623, 0.057782, 0.621281, 0.968247, -0.445063, -0.600732, 0.660850, -0.158794, -0.676880, 0.850153, -1.066240, 0.346097, -1.153198, -0.040521, 0.121970, 0.543404, 0.674564, 0.132088, 0.076647, 0.101775, 0.980765, -0.650080, 1.361059, -0.124721, -0.001593, 1.154818, -0.611679, -0.393120, 0.695443, 0.291048, 0.252670, -0.731479, 0.241855, -0.657490, 0.489700, 0.553997, -0.306384, -0.877900, -0.842576, 0.487980, -0.985348, -0.122397, -1.310573, -1.184617, -0.372208, 0.053159, -0.518625, 0.213250, -0.173651, -0.621710, -0.823707, -0.179112, -0.370638, -0.712041, -0.164439, 0.398642, 0.653594, 0.624036, 0.750798, -0.666541, 0.867607, -0.164728, 0.544187, -0.311866, -0.804660, 0.215361, -0.025402, 0.479757, -0.286378, 0.749314, -0.861048, -0.488403, -1.423516, -0.582072, -1.218712, -0.468119, -0.287526, -0.819196, -0.044174, -1.014502, 0.181420, -0.116543, -0.230101, -0.272759, -0.207943, 0.188415, 0.985109, 0.482662, 0.893843, -0.372587, 0.273496, 0.843205, -0.062679, 0.043041, 0.610744, -0.520826, -0.460301, -0.252603, -0.076088, -0.282675, -0.884598, -0.013207, -0.525895, -0.718284, -0.150858, -0.656411, -0.916080, 0.428538, 0.612775, -0.254355, 0.591788, -0.089115, 0.653982, -0.571543, -0.071012, 0.258513, -0.593327, -0.787083, -0.140050, -0.822829, 0.047995, 0.064248, -0.339321, 0.053175, -0.748536, 0.718525, -0.187742, -0.556915, -0.305481, -0.442569, 0.838715, -0.389870, -0.124297, 0.449334, 0.520864, -0.559794, 0.978488, 0.259770, -0.681518, -0.625423, -0.692673, 0.513272, 0.791823, 0.704558, 0.223589, 0.297366, -0.089659, -0.647069, -0.180945, 0.146859, 0.733813, -0.880684, 0.073790, 0.423669, 0.155443, 0.274216, 0.086297, 0.734476, -0.720882, 0.074570, 0.643110, -0.598493, -0.439742, 0.208178, 0.775252, -0.040753, -0.131705, 0.226481, 0.638668, 0.137249, 0.708856, 0.113831, 0.251735, -0.686258, 0.218570, -0.517684, -0.808824, 0.451915, 0.250180, -0.632150, 0.082114, 0.284590, 0.226384, 0.927120, -0.471201, -0.609900, -0.213115, -0.832443, -1.113740, 0.513921, 0.510438, -0.333980, -0.254294, -0.661615, 0.304723, -0.240485, -0.225160, -0.333703, -0.534702, -0.594655, 0.438434, -0.233188, 0.712790, -0.673771, -0.854068, 0.162000, -0.825426, -0.593228, 0.275573, 0.078050, 0.595866, -0.539965, 0.653531, -0.019238, 0.793518, -1.184260, -0.688174, -0.055755, -0.147184, -0.273286, 0.405166, 0.035050, -0.995597, 0.433057, -0.996560, -0.261961, 0.399886, 0.888552, -0.930889, 0.653469, 0.001270, -0.561108, 0.002273, -0.631255, 1.034346, 0.036394, 0.877170, 0.280738, -0.032534, -0.703942, 0.525326, -0.504632, -0.433203, -0.330629, -0.105294, -0.313116, -0.145426, -0.030543, 0.045234, 0.079576, 0.868295, -0.615231, -0.023003, -0.022251, 0.333415, 0.362157, -0.925195, -0.616046, 0.209065, -0.709925, 0.821040, -0.406378, 0.234326, 0.327149, -0.928372, -0.657734, 0.256680, -0.086291, -0.221552, -0.040825, -1.219988, -0.081335, 0.176483, 0.405462, 0.023389, -0.153648, 0.014312, 0.314792, -0.557747, -0.823423, 0.695095, 0.733245, 0.010142, 0.515182, -0.783043, 0.741779, -0.094706, -0.783239, -0.881468, -0.673757, 1.103544, 1.119902, 0.453866, 0.261690, 0.705489, -0.205707, -0.172882, -0.215922, -0.241973, -0.600661, 0.205954, -0.293601, -0.934525, -1.071501, -0.063314, -0.610735, -0.559807, 0.092083, -0.746374, 0.133675, 0.587070, 0.925752, 0.797939, 0.277740, -0.226224, 0.349210, -0.852042, 0.044652, -0.509790, 0.490155, 0.481981, 0.303313, -1.071288, -0.852490, 0.434593, -0.642084, 0.619070, 0.329671, 0.546332, 0.180030, 0.523808, 0.062633, -0.984222, -0.395587, -0.164030, 0.010771, 0.023652, -0.647479, 0.460667, -0.079529, -0.754052, -0.496365, 0.621304, -0.843933, -0.190083, -0.838027, -0.324013, 0.576506, -0.253836, 0.162822, 0.442742, -0.190141, -0.139995, -1.151173, 0.247181, 0.097835, 0.939232, 1.196857, -0.636408, -1.293273, -0.314598, -0.335204, -0.927315, 0.515288, -0.067433, -1.343618, 0.505013, -0.360213, 0.674965, -0.537633, 0.553555, 0.788577, 0.401491, -0.626267, 0.167236, -1.130414, -0.876252, -0.461952, 0.369479, 0.458736, -0.349038, -0.183281, -0.038169, -0.423597, 0.524346, -0.547285, -0.327446, -0.196593, 0.349321, -0.823540, -0.793293, -0.662898, -0.047870, -0.756104, 0.448066, 0.393901, 0.918328, -0.032035, 0.866159, 0.015169, -0.361502, 0.930697, -0.876160, 0.319514, 0.327803, 0.125965, 0.896911, -0.013983, 0.064978, 0.817034, 0.538256, -0.514518, -0.794522, -0.305328, 0.011455, -0.425433, -1.226188, 0.607880, -0.023483, -0.715531, 0.059303, -0.037573, -0.711044, 0.713369, 0.734153, -0.916559, -0.506471, -0.236223, -0.372365, -0.223231, 0.817918, 0.682999, -0.131413, 0.842406, 0.468722, 0.728844, -0.026770, 0.308313, 0.824411, -0.491489, -0.740992, 0.472688, 0.146754, -0.292359, 0.038474, -0.707945, -0.309577, -0.302627, -0.411457, 0.124445, -0.350728, -0.611248, 0.982075, 0.159952, -0.469593, 0.177583, 0.497437, 0.745517, 0.514250, -0.509721, 1.080993, 0.226432, 1.209035, 0.909728, 0.875040, 1.121471, 0.601406, -0.872674, -0.308285, -0.541318, -0.280578, -0.356082, 0.325839, -0.173605, -0.552290, -0.875182, 0.221805, 0.790543, -0.888004, 0.924339, -0.825975, 0.970685, -0.348938, 0.159803, -0.448626, 0.688590, 0.398957, 0.938682, 0.409735, 0.664608, 1.234659, 1.530431, 1.211991, -0.264779, -1.072427, 0.202694, 0.653216, 0.989018, -0.692044, -0.635084, 0.898053, 0.790519, 0.896783, 0.442451, -0.187431, 0.214705, -0.757246, -0.762815, -0.458712, 0.309225, 0.100522, 0.295735, 0.396733, -0.035981, 0.317361, 0.083327, 1.324425, 1.488354, -0.218544, 1.326976, 0.856856, 0.590741, 0.389570, 0.222816, -0.191937, 0.837651, 0.229507, -0.084835, 0.026493, 0.101772, -0.505621, 1.168330, 0.663235, 0.586110, -0.325169, -0.753013, -0.252816, 0.493106, 0.801238, 1.037437, -0.139706, 0.389689, 0.395501, 0.486947, 1.337556, 0.545609, 1.298146, 0.823732, 0.767022, 0.041639, 0.177358, 0.111142, -0.247846, 1.401916, -0.008083, 0.302594, 0.185114, 0.990018, 0.327173, 0.221821, 0.080288, 0.339225, 0.902862, 0.358192, 0.569301, -0.703731, -0.521177, -0.735003, 0.201294, -0.731907, 0.772192, 0.154077, 0.471749, 0.391176, -0.553561, 0.498652, -0.636569, 1.193885, -0.572560, 0.980172, 1.662647, 0.280970, 1.342489, 0.341626, 1.132885, 0.096537, -0.670041, 0.548717, -0.717951, -0.483165, 0.173987, 0.468659, -0.518440, -0.416448, 0.305368, 0.954824, 0.719195, -0.464522, -0.570461, 0.143464, 0.314225, 0.329424, 0.503515, 0.794850, 0.988590, -0.528836, -0.384400, -0.202677, -0.062396, 0.682580, 0.686992, 0.257711, -0.410863, 0.276446, 0.151797, -0.162310, -1.230628, 0.682061, 0.683399, 0.563109, 0.708059, 0.279271, 0.854797, -0.854848, 0.027039, -0.105722, 0.571303, 0.107132, -0.439527, 0.586915, -0.884386, 0.678627, 0.192182, 0.812817, -0.296760, 0.168254, -0.658986, 0.137087, 0.159543, -0.248234, 0.055429, -1.197167, 0.351803, 0.104126, -0.592684, 0.447485, -0.061992, 0.893384, 0.532822, 0.981238, 0.112295, 0.775736, 0.696093, -1.188876, -1.220644, 0.206690, -0.259817, -0.103976, -0.998927, -0.881730, 0.321458, 0.261732, 0.250674, -0.194421, 0.234695, -0.384405, -0.762124, -0.024454, -0.520121, -1.431273, 0.232923, -1.049528, -0.249937, 0.207279, -0.478833, 0.424122, 0.321946, -0.311471, 0.983576, -0.254821, 0.397321, -1.222484, -0.384610, -0.964247, -0.358260, -1.118079, 0.089299, -0.878180, -0.812151, -0.909541, -0.680810, -0.925329, -0.941273, -1.047123, -1.690042, -1.545978, -0.857357, -1.143014, -0.815230, -0.858737, 0.318613, -0.408893, -0.223151, 0.875647, 0.331251, -0.009937, 0.269789, -0.159896, 0.754897, 0.178796, 0.518091, -0.571057, -0.031788, -0.646935, -0.047391, -1.234057, 0.295172, -0.806789, 0.687287, -0.549025, -0.291451, -0.461726, -0.777657, -0.736282, -0.491176, -1.035083, -0.519287, -1.156197, 0.680819, 0.216426, 0.898345, -0.957105, 0.604728, -0.613090, -0.388318, 0.334213, -0.427962, -1.153528, 0.631605, 0.035505, -1.600522, -0.969269, -0.304803, -0.419460, -0.072722, -0.831650, 0.063276, 0.121750, -0.267667, -0.451698, -1.286640, -0.637793, -1.554448, -1.219463, 0.421329, -0.309623, -0.788823, 0.239306, -0.525874, 0.410133, -0.057026, 0.990759, 0.290616, 0.876830, 0.520474, -0.333661, 0.404926, -1.540784, -0.671044, -0.690239, -0.804814, -1.146984, -0.981015, -0.726560, -0.959600, -0.837572, -1.217690, -0.204217, -1.123810, -0.827705, 0.027647, -0.250259, -0.916652, -0.341017, -0.675439, -0.330189, 0.503039, -0.128026, -0.699054, 0.040418, -0.793413, 0.024543, -0.028290, -0.021576, -0.006461, 0.287313, -1.108472, 0.384234, -0.403146, -0.930205, 0.254617, -1.535311, -1.430840, -0.373745, -0.239871, -0.316971, -1.410670, -0.211545, -0.405746, -0.836046, 0.254519, -0.326334, -0.448604, -0.101975, 0.594247, 0.660464, 0.782505, -0.264834, -0.849569, 0.900921, 0.634622, 0.386439, -1.074984, -1.050631, -0.288887, -0.636698, 0.430017, 0.126762, -0.103587, -0.081511, -0.883460, -0.305963, -1.229020, 0.004850, 0.317896, -0.723710, -0.361056, 0.101797, -0.691923, 0.856740, -0.445436, -0.250583, -0.763890, -0.624936, 0.346733, -0.145179, 0.820632, 0.327584, -0.539902, 0.078627, -0.165743, 0.684923, -0.630434, 0.401362, 0.768428, -0.250167, 0.352027, -0.626359, -0.299763, -0.332214, -0.707257, 0.639043, 0.461412, 0.566546, -0.823906, 0.195136, -0.243929, 0.196115, 0.798638, -0.215863, -0.320885, 0.007642, -0.524384, 0.509933, -0.757163, 0.185656, -0.762623, -0.402018, -0.278548, 0.088297, -0.023366, -0.653758, 0.188681, 0.875140, 0.248080, -0.355587, 0.173826, -0.950069, -0.377258, -0.293637, 0.405273, -0.856328, -0.538783, -0.501282, -0.251674, -0.355320, -0.460175, -0.792370, 0.256612, 0.953051, -0.036025, 0.504142, 0.424196, 0.197262, 0.821960, 0.381266, 0.385413, 0.278813, 0.049279, -0.020985, -1.019820, 0.724008, -1.074762, 0.392266, -0.530126, -0.582243, -0.987467, 0.647699, 0.751483, -0.210845, -0.953554, -0.780401, 0.447780, 0.292806, -0.786019, 0.646396, -0.346341, -0.149278, -0.972373, 0.783389, 0.832748, 0.306155, -0.035505, 0.437681, -0.377195, -0.347647, -0.599858, 0.541656, -0.066823, 0.814536, 0.418221, -0.445825, 1.025264, 0.202062, 1.366102, 0.070328, 1.021163, 0.656488, 0.516811, -0.213090, -0.758158, -0.698083, 0.468209, -0.511234, 0.938379, 0.427725, 1.015949, 0.317575, -0.606740, -0.826905, 0.694834, 0.597115, -0.783917, -0.481417, 1.078165, 1.035252, -0.570799, 0.425473, -0.375358, 0.512079, 0.209915, -0.285374, 1.323876, -0.534903, 0.966013, 0.021553, -0.079038, 0.320697, 0.255831, 0.105928, -0.062893, 0.688690, -0.085552, -0.374707, 0.374968, 0.963362, 0.634732, -0.434986, 0.364356, -0.258505, -0.140776, -0.858010, 0.121852, 0.606500, 0.179802, 0.853331, -0.820900, 0.939548, -0.031459, 0.209987, 0.161856, -0.453407, -0.198632, 0.717167, 0.419189, 0.419359, 1.098085, 1.332777, 0.394213, 0.220087, 0.395224, 0.096200, -0.815427, 0.667890, 1.040926, 0.544383, 0.068536, 1.066429, -0.439150, 1.044244, 1.040707, -0.479492, 0.236057, -0.774526, 0.976982, 0.379187, -1.236642, 0.438994, -0.477361, 0.430345, -0.467083, 0.526389, 0.491251, 0.422270, 0.470948, 1.078487, 1.296920, 0.782004, 1.168909, 0.040118, -0.697557, -0.529710, 0.542212, 0.905410, -0.116190, -0.629516, -0.576701, 0.091834, -0.300695, 0.884438, 0.603316, 0.249037, -1.381005, -0.381284, -0.539354, -0.130357, 0.540491, 0.055378, -0.148488, 0.165166, -0.333942, 0.593088, 0.976731, 0.061178, 0.890620, 0.363667, -0.701056, 0.728673, 0.046255, -0.299330, -0.275036, 1.047188, -0.380034, -0.197559, -0.340090, 0.120301, 0.859262, 0.090257, 0.813138, 0.684436, 0.392271, -1.638925, -0.038555, 0.121169, -0.116229, -0.765539, -0.949219, -0.066387, -0.387632, 0.810568, -0.601816, 1.014857, -0.219646, 0.032584, 1.206397, 0.037961, -0.293109, 0.971857, 0.773466, 0.544340, -0.680661, 0.964753, 1.191328, 0.172478, -0.806725, -0.822864, 0.280672, -0.712034, 0.518223, 0.875342, 0.167566, 0.759381, 0.905278, -0.006641, -0.696592, -0.271635, 0.923937, 0.171731, 0.003902, 0.378479, 0.306500, 0.308261, 1.268782, 0.972028, 0.404752, -0.835508, 0.015171, 0.982203, 0.515582, -0.476456, -0.032142, -0.203592, -0.966644, -0.710686, 0.625330, 1.018226, 0.164981, 0.206325, 0.479226, -0.147648, -0.059064, -1.582887, -1.605911, -0.654353, -0.846427, -0.256896, -0.151673, 0.068137, 0.541859, 1.236911, 0.339849, -0.167363, 0.342624, 0.018745, -0.875359, -0.246216, 0.877121, -0.597022, -0.239525, -0.592912, 0.294842, 0.095240, 0.705217, -1.082717, -0.276754, -1.041348, 0.236425, 1.846486, 0.587276, 0.105046, -1.437809, -0.240743, -0.081986, 0.672099, 0.779109, -0.399794, 0.718031, -0.175661, 0.147203, 0.444987, 0.523283, 0.726998, 0.095969, -0.283560, -0.712458, 0.255982, 0.745193, 0.888722, 0.283932, 0.228841, -0.201966, -0.122723, -0.522053, -0.565692, 0.778168, 2.192487, 1.133526, 0.611215, -0.503395, -0.176414, 0.223707, -0.396050, 0.841290, 0.983810, 0.921063, 1.190682, 0.116839, 1.097390, -0.022887, -0.121838, 0.908659, 0.529937, 0.832836, -0.522521, -0.482774, 1.164248, -0.086991, -0.414005, -1.102711, -0.088478, -0.106606, 0.089962, 1.213708, 2.188314, 1.716339, -1.043817, -1.166930, -0.168548, 0.639966, -0.084195, 0.338540, 0.235784, 0.892229, 0.302778, 0.201952, 0.693149, 0.932378, -0.630057, -0.218550, 0.864415, -0.032222, 0.081206, -0.086327, 1.245561, 0.674473, -0.197839, 0.540240, -0.841532, -1.377334, -0.342173, 1.064008, 1.352067, 1.099291, -0.109739, -0.390355, -0.522494, -0.696089, -1.460462, -0.599621, 1.377555, 1.914161, 0.212476, 1.223248, -0.172135, 0.144845, 0.517477, 0.409176, -0.396808, -0.541731, 0.648364, 1.071008, 0.925587, -0.655520, 0.235916, -0.145894, -1.238439, -0.124734, -0.046946, 0.782250, 0.851246, 0.915417, -0.202475, -0.533673, -0.683670, -0.577874, -0.005852, 0.514962, 0.252867, 0.922630, 1.289933, 1.148993, 0.911014, -0.635551, -0.006085, 0.066238, 0.188750, 0.599948, 0.036152, 0.911490, 0.432931, -0.308286, 0.102816, 0.747569, -0.150979, -0.373516, -0.971946, -0.503283, 0.027177, -0.373516, -0.247888, -0.386760, 0.330823, 0.522443, 0.274887, 0.740223, 0.794106, 1.069136, 1.217400, 0.715807, -0.056002, -0.480872, -0.126944, 1.044768, 0.764325, 0.260322, 0.734323, 0.966133, -0.372986, -0.226179, -0.341359, 0.673379, 0.233958, 0.564708, 0.351895, -0.047407, -0.174380, 0.150658, 0.221048, -0.510186, -1.069755, -0.033659, -0.287855, 0.199675, -0.184727, 0.196336, 1.005423, 0.244179, 0.151447, 0.965548, -0.626032, -0.560193, 0.972997, 0.486061, 0.412895, -0.596288, 0.233817, 0.918737, -0.521549, -0.186396, 0.924629, 0.831596, -0.706722, -1.334939, -0.084605, 0.787434, -0.629687, -1.130837, 0.264360, -0.698495, -0.703185, -0.580365, -0.947798, 1.258663, -0.349327, 0.459205, 0.860269, -0.631012, 0.518314, -0.321215, -0.849330, 1.045213, 1.023067, 0.680046, 1.194298, 1.040069, -1.270782, -0.761461, -0.093732, -0.373161, -0.225200, -0.761885, -0.265372, -0.028357, -1.380689, 0.152716, -0.616005, -0.011876, 0.859533, -0.369579, -0.024972, 0.081996, -0.557947, 0.000623, 0.888452, 0.656909, -0.588604, 0.507640, 0.751871, -0.660694, -0.045548, 0.809777, 1.379875, -0.178161, 0.676238, -0.100495, 0.469698, -0.240706, 0.109998, -0.598767, 0.448634, 0.099107, 0.255853, 0.487136, -0.362738, 0.019154, -0.065690, 0.239430, 0.983809, 0.781747, 0.728387, -0.191172, -0.293672, 0.990225, -0.610701, -0.612547, 0.229626, 0.666551, -0.110711, -0.139670, 1.562854, 0.342540, 0.472704, -0.315332, 0.791953, 0.946826, 1.019513, 0.067007, 1.029025, 0.577944, -0.140164, 0.561396, 0.114423, -0.470180, 0.440559, 0.290541, 0.699686, 0.729474, -0.449384, -0.119168, 0.798691, -0.433854, -0.488551, 0.626829, -0.920932, -0.259938, -0.382810, -0.514600, 0.445341, 1.438859, 0.736925, 0.145377, -0.115011, -0.865865, -0.325370, 0.251885, 1.195613, -0.673571, -0.813521, -0.764934, -0.205902, 0.350757, -0.931970, -0.432586, 0.026595, -0.410036, -0.068578, -0.648627, -0.830965, -0.764666, 0.893865, 0.192566, 0.448468, -0.726664, 0.999820, -0.466314, -0.695721, 0.333026, 0.108770, 0.146767, -1.510221, -1.836928, 0.521255, 0.665064, 0.806984, 0.111620, 0.183435, -0.916031, 0.266878, -0.842492, -0.244863, 0.301851, 0.034015, 0.613644, -0.124770, -0.338737, -0.565760, -0.178884, 0.252556, 0.835456, 0.538337, 0.859220, -0.276510, 0.620061, 0.524148, -0.011398, 0.031624, -0.827841, 0.535373, 0.157010, -0.435364, 1.592057, 0.052491, 0.560977, -0.136056, 0.270897, 0.248064, 1.531859, 0.749154, 0.129258, 0.342953, -0.734325, -0.729104, 1.019768, -0.374567, 0.380981, -0.872159, 0.091872, 1.070779, -0.322570, -0.395753, -0.170391, 0.017610, -0.969046, -0.444521, -0.443696, -0.885516, 0.310430, -0.250897, -0.192837, 0.468288, 0.747625, 1.766162, 0.609244, 0.211058, 0.695264, -0.122805, 0.673526, -0.623241, 1.130218, -0.774105, 0.822589, 0.529705, -0.380792, 0.264598, 1.015419, -0.315508, -0.227094, 1.118465, -0.594554, -0.016817, -1.246400, 0.142804, -1.037389, -0.357904, -0.832166, -0.975112, 0.091553, -0.103399, -0.032678, 0.087058, 0.623195, 1.722395, 0.934057, 0.972603, -0.127380, 0.763302, 1.153103, -0.087048, -0.264164, -0.844608, 0.542562, -0.508418, 0.346402, 0.910384, 0.489642, 0.902039, -0.004238, 0.694373, -0.499527, -0.074563, -0.004253, 0.246598, -1.449364, 0.260737, -0.152726, -0.326700, -0.573901, 0.444887, 0.158135, 0.857132, 0.498893, 1.443781, 1.065708, 0.082847, 0.344148, -0.670393, -0.684021, 0.592119, 0.585635, 0.575402, -0.515610, -0.559084, 0.545541, 0.030538, 1.193101, 0.086463, 0.576947, 1.233633, 0.691764, 0.257195, -0.081409, 0.471866, 0.022548, 0.005777, -0.223261, 0.961028, 0.608269, 1.407963, 1.381996, 0.443695, 0.989850, -0.649321, 0.319206, 0.343462, 0.663538, -0.559010, -0.261541, -0.446057, -0.648801, 0.436742, 0.050659, -0.807696, 0.518535, 0.013826, 0.221558, 0.683863, -0.139537, 0.792736, 0.506406, 0.258125, -0.361196, 1.309405, 0.657490, -0.060445, 0.064873, 1.178502, -0.650577, 1.019507, 0.566086, -0.056749, 0.974907, 0.646039, 0.425202, 0.080778, -0.933039, -0.106421, 0.651060, -0.540755, 0.367694, -0.685505, 0.190806, 0.459689, -0.329492, -0.170482, 0.996573, 0.423629, -0.170791, 0.932312, 0.939679, -0.179976, 1.289305, -0.409534, 1.116208, 0.186487, 0.085043, -0.499311, 0.723333, 0.869788, -0.780725, 0.738576, 0.230430, -0.789810, 0.772000, 0.978009, 0.161213, 0.252421, 0.567257, 0.329938, 0.547188, -0.385784, -0.450060, 0.076675, 0.702159, -0.796468, 0.562434, 0.841469, 0.557907, -0.900068, 0.636167, 0.498839, 0.671562, 0.892842, -0.343818, -0.367376, -0.346604, -0.619814, 0.318277, 0.730454, -0.018993, 0.492109, 0.056377, -0.680991, 0.911598, -0.757657, 0.204704, 0.637763, 0.882950, -0.003815, 0.313849, -0.905385, -0.083520, -0.708634, -0.598220, -0.019939, -0.727173, 0.627731, 0.528025, 0.074062, 0.747830, 0.472468, -0.844451, 0.384579, 0.617540, -0.992867, 0.139401, -0.474035, -0.856228, 0.284691, -0.042905, 0.920413, 0.708461, 0.397311, -0.070541, -0.831522, 0.092820, -0.045211, -0.545918, -1.001755, 0.187694, 0.138174, -0.983248, -1.406090, 0.068565, -0.630445, 0.496594, -0.255426, -0.334092, -0.101500, 0.709692, -0.567924, -0.209644, 1.008822, 0.396821, -0.237174, -0.283153, 0.138735, -0.807598, 0.300268, 0.936889, -0.190951, -0.130989, -0.466954, 0.675260, -0.574217, 0.407774, -0.082970, -0.683679, -0.713265, -0.502183, 0.217064, -0.591722, -0.784090, 0.717746, 0.870141, 0.816009, 1.072732, -0.417945, 0.091057, -0.186546, -0.631936, 0.798205, -0.258060, 0.012871, -0.600590, 0.455207, 0.539969, 0.137562, -0.387648, -0.538747, 1.026158, -0.886808, 1.174109, -0.133443, 0.821237, 1.343238, 0.116404, 1.528309, 0.822185, 0.020995, 0.927682, -0.006498, 0.242768, -0.096768, 0.016758, 1.138658, -0.297601, -0.600022, -0.046206, -0.326369, 0.935333, 0.520631, -0.584711, -0.982660, -0.197549, 0.125384, 0.330749, 0.147254, -0.779680, -0.383617, -0.066744, 1.515284, 0.441196, 0.100150, 1.596575, 0.296343, 0.256828, 0.736909, 0.732447, -0.324297, 1.237811, 0.316344, 0.027719, -0.341925, -0.405750, 0.789707, 0.831598, -1.019245, -0.258653, 0.576527, 0.778122, -0.638686, 0.814460, -0.618491, -0.427540, 1.076999, -0.241270, 1.231205, 0.852277, 1.400953, 0.801529, 0.502257, 1.220299, -0.214780, -0.095250, -0.591999, -0.265129, 0.116560, 0.192564, 0.479178, 0.849474, 0.156421, -0.642235, -0.940233, 0.055640, -1.589858, 0.249488, 0.269901, -0.735737, -0.568096, 0.715968, -0.717386, -0.082723, 1.014061, 1.176413, -0.101246, -0.001052, 0.587187, 0.925092, 1.128066, -0.549306, 0.235141, 0.671984, -0.100737, -0.073343, 0.114588, 0.862848, 1.105085, 0.307254, 0.114063, 0.471923, 0.962878, -0.226922, 0.028716, -0.778485, 0.487317, 0.854563, -0.111969, -0.397124, -0.077867, 0.127645, 0.588196, 1.069388, 1.044631, -0.069153, 0.705031, 0.042213, -0.115687, -0.051056, 0.274656, 0.599696, -0.474567, -0.632773, 0.160006, 0.044344, -0.246551, 0.221525, -0.178128, 0.160972, 0.963491, -0.301162, -1.296744, 0.297101, -0.763009, -0.804417, 0.784719, -0.467881, -0.560747, 0.597724, 0.336990, -0.768773, 1.307893, -0.277126, -0.453883, -0.481007, -0.502286, -0.374153, 0.038725, 0.090980, -1.141679, 0.761324, -0.171239, 0.020588, 0.605355, 0.085843, 0.237315, -0.525920, 0.017657, -0.234194, 0.341725, -0.882371, -0.255805, -0.975633, 0.714512, -0.101462, 0.971400, 0.514812, -0.008596, -0.539724, 0.554456, 0.266556, 0.304883, -1.368907, -0.837945, -0.523348, -0.987937, 0.253783, 0.799160, -0.154478, 0.548050, 0.948837, 0.182946, 0.410657, 1.036967, 0.596363, 0.494945, 0.887713, 0.685179, -0.671407, 0.335334, -0.057905, 0.407675, -0.733660, -0.498700, 0.342070, -0.794239, 1.017990, 0.208990, -0.136254, 0.147620, 0.161409, 0.175168, -0.432163, -1.370768, -0.623283, 0.759047, -0.498762, 0.001573, 0.924935, 1.757154, 1.067822, 1.035069, 0.951728, -0.441025, 1.034987, 1.065047, 0.113858, 0.820163, 0.336589, 0.346879, -0.517709, 0.933774, -0.889296, -0.927840, 0.065449, -0.271143, 0.045980, -0.579494, 0.115095, -0.307177, -0.295506, -1.441542, 0.101174, -0.455128, -0.423095, 0.104213, 0.444231, 1.804827, 0.436152, 0.064831, 0.795364, 0.584019, 0.367881, -0.316783, 0.309582, 0.845146, -0.169414, 0.212203, -0.156392, -0.674069, -0.184937, 0.332198, 0.589059, -0.125970, -0.194240, -0.680993, -0.803787, -1.139820, -0.636314, -1.013113, 0.545594, 0.195035, 0.251070, -0.376005, 0.255972, 0.622976, 0.111032, 0.371907, 0.319735, 0.225496, 0.689761, -0.546111, -0.517488, 0.216077, -0.066516, -0.422809, -0.258892, 0.722960, 0.430405, -0.304600, -0.176655, -1.284949, -0.581454, -0.284932, -0.792938, -0.596626, -0.407829, 0.569859, 0.720374, 0.146201, -0.661823, -0.259071, 0.485148, 0.839600, 0.204518, 0.653487, 1.395867, 0.496790, -0.926366, -0.313796, 0.115758, 0.625122, -0.074664, 0.103364, -0.803647, -0.515969, -0.224653, 0.069850, 0.189668, 0.393106, -0.260691, -0.932252, 0.027854, -0.392664, -0.076907, 0.143675, 0.698548, 0.040381, -0.319221, -0.367663, 0.286031, 1.015249, 0.521553, 1.178450, 0.443913, -0.378797, 0.515355, 0.141975, 0.981827, -0.630107, -0.919789, 0.095990, -0.438567, -0.299276, 0.078042, 0.610590, 0.010131, -0.203631, -1.277377, -0.145973, -0.872871, -0.724691, -0.230690, 1.834108, 0.478219, -0.431922, -0.095916, -0.300621, 1.503198, 0.974337, -0.316943, 0.132476, 0.476042, 0.952565, -0.896630, 0.833474, -0.206700, 0.869359, -0.304289, -0.055373, 0.115398, -0.689922, -0.882167, -0.178271, 0.892070, -0.172757, -1.248705, -0.603289, -1.283216, -0.586304, -0.601397, -0.168407, -0.262223, 0.116011, -0.276273, -0.596434, 0.073772, 1.222154, -0.849102, 0.056982, -0.067068, -0.630666, 0.007804, 0.228161, -0.269524, 0.146939, 0.859992, -0.551022, 0.726938, -0.207200, 0.102425, -0.175500, -0.685261, -0.643176, 0.794010, -0.392440, -1.373598, -2.090794, -2.296718, -1.206476, -1.913751, -1.080022, -0.661364, 0.868033, 0.825169, 0.450854, 0.717519, 1.103966, 0.655017, 0.269384, 0.491347, 0.790332, 1.027103, -0.504598, -0.057964, -0.690337, 0.197814, -0.977815, -0.112197, -0.541842, 0.789082, -0.320919, 0.401488, 0.181574, -0.335934, -1.727488, -1.096696, -1.674194, -0.728028, -0.088198, 0.818189, 0.734166, -0.417266, 1.160717, -0.672908, 0.667385, -0.341094, 1.523306, -0.036906, 1.073068, 0.263359, -0.225299, 0.778448, -0.050759, 0.552824, -0.129363, -0.023986, -0.388777, -0.865586, 0.515704, 0.645334, -0.725990, 0.206189, 0.045461, -0.827161, -1.364850, -0.536146, -0.200612, -0.602881, -0.626112, -0.622429, 0.795391, 1.043390, 0.568127, -0.078200, 0.739358, 1.638577, 0.586991, 0.051770, -0.382649, 0.822127, -0.169938, 0.929458, 0.296340, 0.325648, 0.163574, 0.006406, -0.806277, -0.678175, 0.029361, 0.808260, -0.019960, -0.710971, 0.110140, 0.122153, -0.022016, -0.045791, -0.478945, -0.184565, -0.375088, -0.029323, 0.864773, -0.307010, 0.082212, 1.286245, -0.235037, 0.180141, -0.014631, 0.131410, 0.355104, -0.543228, 0.088971, -0.775391, 0.066376, 0.567712, -0.047016, 0.418550, -0.330804, -0.790204, 0.515704, -0.485582, -0.431021, -1.015443, 0.400246, -0.213796, -0.043620, 0.856884, -0.218340, -0.760623, 0.412616, -0.516416, 1.034129, -0.087792, 0.155472, 0.128177, 1.123344, -0.090575, -0.135738, 0.234953, 0.890226, 0.804710, -0.842979, -0.378043, -0.188440, -0.086331, -0.191666, -0.262239, -0.305262, -0.860164, -1.089679, -1.063557, -0.451781, -1.116010, -0.723685, -0.903639, 0.299542, -0.393260, -0.082126, 0.451737, 0.570172, 1.257481, 1.178602, 0.068604, 0.687436, -0.148026, -0.605454, 0.362840, -0.780749, 0.975790, -0.409528, 0.935884, 0.607286, 1.141389, -0.157681, 0.200349, -0.673579, 0.655080, -0.481940, -0.090071, 0.820444, 1.206232, -0.405678, -0.375097, -0.540790, -0.251778, 0.255706, -0.354352, -0.583206, -0.012538, 0.005379, 1.111986, -0.816619, 0.023144, -0.933411, 0.097662, -0.306298, 0.646627, -0.846147, 0.648833, -0.489408, -0.198585, 1.038238, 0.939364, 1.359401, 0.444545, 0.409452, 0.394782, 0.566886, 1.400578, 1.535827, 0.928527, -0.052450, -0.584710, -0.522279, 0.493394, 0.814302, -0.445111, 1.006098, -0.058639, 0.459780, 0.102476, -0.401683, 0.706329, -0.790877, -0.063598, 0.153037, -0.242664, 0.686099, 0.198277, -0.632796, 0.879805, -0.372219, -0.166221, -0.348037, 0.465500, 0.166176, 1.080934, -0.001614, -0.352992, 1.215250, -0.534743, 0.799643, 0.043871, 0.155805, -0.458635, -0.494712, 1.070486, 0.159903, 0.333668, -0.402916, -0.541868, -0.205356, 0.380159, 0.205365, -0.443227, 0.674553, 0.833883, 0.645861, 0.096781, 0.469944, 0.361240, 0.369810, -0.925118, 0.527352, 0.021180, 0.996541, -0.519677, 0.561713, -0.737666, -0.789603, 0.616428, -0.657272, 0.851674, -0.114443, -0.815168, 0.175781, 0.706952, -0.373736, 0.111496, 0.786024, -0.930924, -0.250423, 0.779501, 0.508737, -0.252276, -0.926436, 0.089219, 0.905465, -0.328527, 0.709644, -0.160632, 0.034334, 0.975921, -0.201563, 0.592306, -0.922226, 0.796664, 0.839065, -0.699098, -0.333785, -0.299297, -0.686508, 0.429695, 0.215740, 0.498201, -0.725471, 0.445610, 0.061705, -0.274355, 0.450862, 0.565999, 0.354295, 0.833492, 0.273302, -0.384830, -0.197658, 1.070882, 0.135170, 1.018250, 0.092884, 0.008569, -0.212755, 0.734354, 0.408696, -0.336804, -0.587146, 0.325097, 0.348258, 0.467912, -0.488133, 0.191802, 0.643808, -0.838719, 0.497464, -0.817341, 0.999906, 0.626633, -0.650116, -0.690304, -0.269207, 0.983359, 1.045953, -0.357976, -0.251690, -0.307741, -0.319943, 1.073889, 1.051641, 1.246456, 0.044468, -0.469370, -0.396449, 0.262910, 0.918141, -0.182357, 0.396733, -0.514267, -0.777419, -0.638664, 0.463736, 0.252030, -0.820370, -0.207345, 0.825956, 0.248804, -0.440190, -0.946323, -0.562675, 0.036067, 0.004854, 0.609596, -0.672650, 0.760900, 0.990827, 0.745251, 0.697767, 0.399677, 0.187975, -0.565287, 1.086819, -0.032183, 1.147889, 0.341366, -0.398397, -0.507235, 0.599820, -0.587528, 1.071696, -0.311490, 0.363569, -0.429155, -0.938839, 0.649311, -0.136095, -0.601533, -0.290437, -0.564027, -0.069406, 0.681409, 0.697372, 0.564417, 0.684591, 0.031907, 0.003119, 0.531165, 0.159693, -0.660151, -0.346456, 0.209075, 0.612405, 0.506611, -0.042067, 0.027913, -0.522138, -0.375071, -0.349563, -0.012570, -0.731912, -0.513806, -0.211471, -0.500719, 0.464022, -0.813491, 0.806892, 0.793650, 1.127861, -0.535232, 0.815464, 1.123068, 1.579246, 0.272408, -0.537236, -0.169019, -0.086591, -0.511153, -0.307030, -0.203399, 0.639928, 0.953435, 0.084662, -0.161722, 0.329841, 0.421595, 0.216311, -0.524075, -0.797188, -0.776028, 0.395729, 0.715465, 0.876568, -0.581691, -0.009051, -0.173032, -0.358017, 0.292664, 0.774726, 0.205581, -0.717568, 0.446200, 0.417432, -0.071994, -0.330444, -0.867722, 0.390360, 0.140592, 1.040560, -0.001234, 0.117141, 0.015560, -0.728572, -0.011571, -0.538753, 0.690067, 0.571449, 0.749949, 0.341812, 0.456506, -0.728530, -0.163765, -0.359172, -0.617305, 0.548700, -1.116465, 0.017183, 0.351784, -0.149132, -0.865813, -0.385312, -0.521820, -0.066626, -0.486014, -0.074119, -0.727884, 0.184278, -0.622392, -0.343396, -1.032312, -0.757487, 0.278910, 0.216396, 0.469124, 0.275322, -0.967645, 0.993984, 0.856456, -0.453644, 0.783701, -0.320889, 0.567118, 0.609885, -0.592458, -0.611525, 0.241096, -0.336564, 0.502029, 0.036043, -1.177841, -0.646534, -0.779944, -0.584985, 0.118819, 0.045882, -0.543051, -0.260539, 0.469236, -0.268656, 0.691713, -0.752855, -0.224990, -0.493671, -0.821128, -0.128806, -0.011461, -0.735000, 0.424357, -0.364535, -0.647870, -0.824340, -0.573359, 0.132389, -0.107415, -0.017669, -0.528686, -0.956630, -1.780892, -0.976922, -0.431995, -0.059842, -0.841708, -1.254618, -0.358068, -0.810546, -0.778822, 0.161945, -0.619212, 0.378100, 0.484340, -0.678350, 0.542257, 0.057925, 0.045765, 0.237242, 0.847874, -0.782276, 0.102735, -0.384752, -0.070288, -0.025576, -0.334169, 0.425257, 0.146463, -1.094967, -0.821528, -0.443880, -1.405628, 0.081171, -0.283986, 0.036081, 0.273830, -0.613164, -0.904819, -0.200202, 0.976954, 0.071441, 0.890290, 0.157338, -0.821034, 0.670718, -0.961997, -0.307666, -0.187046, -0.402954, 0.731990, 0.437016, -0.865377, 0.506399, 0.509630, 0.014263, 0.131678, -0.784588, -0.622043, 0.606613, 0.224130, 0.675527, 0.300407, -0.153265, 0.476132, 0.118152, -0.804075, -0.835222, 0.042952, 0.131942, 0.701391, 0.222630, -0.902737, 0.803177, -0.517169, -0.400370, -0.620796, -0.718347, -0.702142, -0.118958, 0.332841, -0.479055, -0.098135, 0.764936, -0.149264, 0.628446, 0.155056, 0.281842, 0.784738, 0.967536, -0.103557, 0.572003, -0.438771, -0.506774, -0.405532, 0.475988, -0.671468, -0.264432, -0.221394, -0.736225, -0.286659, 0.798355, -0.630527, -0.263468, -0.258002, 0.135562, -0.311550, 0.094109, -0.070504, -1.058491, -0.481199, 1.038876, 1.368521, 0.634554, -0.028641, 1.202384, 0.659097, -0.493171, 1.157175, 1.280243, 0.940322, 0.199324, 0.232947, 0.359537, -0.482516, 0.444241, -0.686940, 0.853182, 0.069818, -0.510888, -0.788432, 0.437927, -0.268894, -0.649582, 0.632739, -0.806992, -0.744696, -0.406096, 1.630314, 0.329109, 1.024628, 1.583764, 1.348148, -0.169032, 1.250573, -0.132424, -0.241950, 0.405148, -0.195082, -0.427166, -0.013728, 0.078781, -0.342825, -0.645021, -0.578152, -0.887151, -0.912418, -0.866147, 0.028614, 0.039155, 0.613772, 0.572559, -1.206757, -0.244380, -0.433772, 0.493717, 0.943840, 1.110474, 0.692818, -0.425175, 0.040129, 1.428196, 0.748214, 0.725318, 0.096529, -0.060815, -0.812084, -1.271470, -1.416701, -0.583569, -0.831559, -0.235404, 0.336799, -0.578531, 0.414870, 0.691491, 0.414679, -0.119608, 0.595441, -0.122699, 0.237788, 0.199296, 0.073491, 0.661134, 0.803880, 1.161269, 0.246457, -0.374563, 0.249301, -0.691624, 0.842785, 0.456286, 1.060993, 0.928913, 0.789432, -0.436269, 0.238898, 0.488241, -0.833952, -0.254222, 0.495204, 0.985281, -0.765901, 1.094851, 1.147195, -0.636523, 0.162836, -0.562842, -0.107991, -1.403940, -1.210389, 0.701034, 0.569834, 1.043788, 0.691511, -0.930815, -0.146610, -0.866297, 0.528489, -0.415308, -0.101826, 1.180638, -0.108432, 0.433084, 1.012317, -0.804952, -0.547257, 0.930226, -0.579616, 0.712154, -0.463855, -0.830149, 0.249007, -0.434689, -0.127064, 1.015031, 0.587833, 0.376580, -0.643976, 0.908552, 1.350466, 1.086181, 0.123837, -0.636718, 0.578999, 0.066912, 0.022300, -0.243421, -0.264624, 0.371513, -0.088333, 0.305590, -0.373605, 1.038008, -0.426643, -0.107159, 0.453239, 0.435135, -0.817397, 0.166565, 0.340781, 0.468612, 0.941142, 0.045709, 0.330244, 0.495991, 0.906135, 0.281004, 1.585095, 0.434562, 0.103798, -0.044186, -0.734103, 0.585297, 0.588171, 1.469451, 0.851468, 1.610807, 0.062702, 0.851364, 0.123501, 0.350917, 0.894415, -0.326688, 0.772161, 0.688778, -0.689159, -0.666298, 0.857065, 0.224966, -0.593542, -0.315752, 0.676424, 0.482327, -0.678740, 0.305693, 0.492065, 0.447761, 0.422540, -0.537038, -0.454222, 0.238287, 0.414007, 0.777908, 0.361414, 0.690941, -0.082497, 1.420607, -0.509318, 1.214656, 0.115451, 0.327766, 0.442146, -0.744915, -0.470250, 0.030698, -0.277828, -0.622188, -0.633702, 0.124941, 0.531597, -0.515516, 0.648920, 0.098729, 0.633391, -0.948199, 0.574597, 0.302068, -0.217123, -1.217489, -0.516645, 0.640771, -0.018096, 0.567956, 0.892381, -0.507570, -0.110185, 0.113331, 0.194510, 0.207587, -0.426768, -0.396225, -0.694200, -0.323158, 0.976028, 0.542751, 1.164559, -0.384549, 0.862249, 0.961461, 0.022344, 0.586658, 0.931954, -1.092650, -0.293258, 0.662015, -0.910122, 0.004290, 0.229763, 0.621211, 0.055808, 0.968369, 0.203753, -0.251967, 0.182673, 1.193089, 0.715149, 0.430542, -0.694428, -0.491883, 0.726692, 0.636616, 0.565398, -0.119707, 0.639644, -0.388914, 0.966476, -0.824502, -0.007598, 0.353543, 0.043972, -0.336368, 0.046420, 0.002024, -0.352221, -0.855844, 0.333622, -0.443789, 0.341275, 0.826244, 0.976185, -0.093277, -0.541366, -0.337980, -0.476731, 0.596126, -0.257966, 0.949773, -0.398142, 0.954819, 0.712392, 0.127648, -0.014409, -0.624415, -0.528646, 0.658493, 0.352957, 0.988738, 0.185787, 0.446409, 0.673789, 0.283041, 0.363870, 0.415903, -0.077514, 0.263973, 1.230698, -0.039131, 0.348802, -0.016343, -0.339742, -0.751718, -0.838539, 0.063585, 0.807422, -0.398843, -0.078850, 0.753342, -0.167612, 0.729392, -0.555759, -0.795995, -0.079346, 0.862998, 0.332983, -0.161525, 0.852997, 0.292737, 0.663027, 0.766500, 0.257256, -0.811546, 0.015646, 0.066103, 1.196688, 0.304497, 0.054307, 0.711499, 0.840144, -0.242646, 0.690162, 0.621335, 0.697578, 0.905028, 0.256710, 0.710718, -0.386655, 0.370218, 0.684554, -0.574159, 0.621702, 0.907267, -0.553431, -0.163109, 0.076942, -0.090036, -0.141963, 0.126405, -0.445000, 0.026044, 0.019567, 0.109562, 0.168788, 0.909372, 0.694670, -0.492146, 0.265314, -0.329225, 0.789975, -0.550394, 0.191227, -0.951969, -0.479981, 0.552561, 0.372114, 0.557288, -0.917669, -0.090429, -0.435702, 0.345687, -0.163387, -0.236210, 0.508373, -0.714006, 0.059581, -0.779741, 0.670881, 0.925493, 0.960308, -0.516228, 0.045961, -0.557488, -0.925820, 0.372077, -0.419153, 0.451088, -0.756467, -0.412712, -0.485145, 0.057960, 0.558149, 0.140173, 0.691367, 0.531426, -0.644075, 0.266230, 0.909429, -0.916872, 0.476118, 0.696504, -0.739590, -0.253668, -0.908731, -0.827367, -0.642377, -0.574118, -0.527512, 0.662750, 0.759960, -0.962091, -0.327271, -0.648680, 0.856974, -0.206741, -0.043110, -0.858375, -0.167593, -0.908928, 0.910995, 0.722150, 0.080637, 0.790098, -0.156338, -0.568324, 0.246330, 0.255568, 0.041191, 0.477454, 0.547390, 0.229489, -0.059307, -0.458504, 0.381526, 0.565466, -0.330740, -0.457001, -0.295392, 0.555332, 0.751992, 0.658091, -0.114245, 0.148023, 0.491639, 0.470916, 0.234841, -0.784734, -0.682180, -0.705684, 0.856540, -0.647018, 0.241445, -0.679551, 0.689935, -0.366965, -0.540588, -0.855299, -0.247633, -0.055032, 0.853206, 0.043209, -0.575206, 0.306288, -0.795643, -0.049508, -0.499370, 0.298174, -0.238199, 0.103374, 0.885304, -0.673314, 0.540550, 0.355181, 0.233144, -0.218265, -0.690380, -0.441016, -0.018044, 0.046281, -0.161921, 0.618195, -0.677066, -0.680926, -0.819939, 0.049609, 0.198191, -0.875796, 0.491276, 0.011824, -1.228276, -1.238479, 0.116609, -0.297351, -0.699762, 0.057947, 0.430907, 0.211604, -0.474909, -0.270055, 0.875081, 0.503708, 0.519609, -0.406898, 0.350035, 0.249884, 0.883827, 0.863011, -0.834145, -0.582541, -0.158862, -0.640724, 0.761320, 0.456348, -0.505929, -0.512310, -0.599920, -0.424762, 0.283280, -0.247448, 0.487924, 0.489228, 0.215087, 0.065347, 0.304403, 0.977727, 0.737246, -0.391564, -0.231211, -0.355835, 0.272949, -0.829456, -0.019712, 0.489017, 0.074975, -0.441391, -0.234047, -0.203268, -0.266956, 0.073879, 0.810432, -0.134354, 0.412641, -0.321599, -0.468420, -0.588972, -0.745693, -1.232243, -0.003739, 0.403883, -0.753781, 0.224818, 0.520005, 0.455937, 0.752786, 1.261090, 0.613109, 0.001151, -0.491811, -0.858704, -0.642166, 0.822214, 0.746745, -1.090577, -0.754183, -0.264661, 0.711396, 0.228721, -0.771924, 0.073259, 0.047885, 0.057309, -0.497760, -0.844403, -0.136053, -1.176460, 0.211836, -0.734310, 0.373385, -0.177302, -0.661778, 0.033995, -0.084777, 0.926010, 1.147412, -0.380684, 0.720091, 0.971293, -0.319730, -0.234561, 0.059703, 0.521715, 0.815168, -0.509449, 0.411635, 0.377516, 0.389611, 0.166614, -0.055157, -0.908768, -0.063780, -0.474672, 0.254748, 0.134237, -0.245162, 0.217165, 0.477245, -0.409513, 0.506602, -0.269821, 0.931400, 0.737965, 1.576619, 0.468763, 0.720913, -0.686640, -0.082515, 0.333736, 0.134413, -0.363135, -0.717863, -0.119212, -0.866383, 0.349111, -0.725154, 0.586672, 0.551352, 0.405824, 0.667394, -0.211303, -0.312132, -0.279115, -0.449124, -0.059104, 0.460556, 0.282489, 0.366753, 0.466487, -0.228210, -0.121113, 0.048751, -0.162999, 0.882933, 0.200923, -0.729820, 0.442721, -0.352475, -0.190500, -0.360085, -0.737203, -0.044631, -0.461479, 0.026832, -0.047414, 1.063511, -0.076718, 0.392479, -0.570520, -1.373561, 0.435372, -0.697582, 0.196839, -0.048201, -0.377606, 0.751211, -0.063768, 1.010098, 0.617349, 0.633928, 1.054576, -0.782151, -0.059034, 0.847496, -0.242746, 0.127452, 0.131173, 0.791372, -0.192109, -0.491357, -0.525039, 0.898446, 0.043501, 0.192510, 0.141156, -0.441126, -0.316233, -0.239416, -0.137051, 0.172480, -0.335955, -0.212060, 0.266766, -1.174317, 0.989883, -0.002492, 0.283967, 0.747655, 0.408443, 0.943353, -0.609533, -0.192223, 0.594279, -0.334660, -0.341382, 0.424721, 0.441671, -0.942758, -0.898630, 0.863005, -0.263287, 0.371122, 0.611518, 0.016552, -0.509495, 0.052396, 1.059280, 0.203920, -0.198167, 0.037981, 0.554071, 0.653721, 0.579286, -0.728472, -0.544235, -0.603085, -0.435642, 0.009615, 0.340863, 0.725343, -0.058178, 0.154719, -0.456597, -0.399408, -0.775435, -0.476995, -0.376249, -0.345636, 0.228659, -0.354189, -0.231663, 1.202011, 1.329957, 1.083475, 0.902179, 0.956625, 1.495386, 0.869271, -0.027517, 0.103851, -0.339257, -0.245900, -1.004339, -0.178844, 0.518856, 0.719126, 0.664409, -0.556487, -0.298393, 0.862250, 0.009282, 0.595378, -0.587841, -0.241911, 0.569145, -0.166284, 0.921246, 0.182823, -0.187056, 0.701132, 0.822732, 1.045793, -0.105626, -0.133343, -0.297019, 0.914066, 0.171840, 0.061883, -0.480225, 0.238427, -0.913163, -0.734450, 0.182365, -0.024448, 0.729068, -0.312407, 0.353911, 0.347378, 0.262062, -0.166945, -1.183268, -0.349638, -0.113237, -0.752705, 0.088949, -0.053458, 0.066599, 1.431469, -0.215909, 0.161900, 0.880935, 0.888116, 1.061259, -0.231404, 1.264516, 0.393237, 0.238990, 0.042412, -0.263458, -0.217815, 0.462425, 0.523228, 0.247650, 0.181220, -0.539064, -0.288048, 0.807865, 0.032959, 0.158402, -1.222411, -1.144758, -0.190560, -0.045646, -0.063550, 0.728582, 1.015183, 1.028297, 1.141915, -0.201224, 0.791860, 0.267959, 0.096956, 0.962286, -0.543943, -0.297530, 0.325645, -0.897830, -0.525285, -1.105851, -0.493814, -0.258702, 0.518722, -0.214516, -0.990656, -0.171874, -0.335416, -0.193324, -1.834995, -1.899250, -1.891387, -1.294005, -0.181403, 0.515312, 1.203388, 0.948507, -0.048846, 0.400229, 0.340305, -0.157311, -0.204208, 0.621615, 0.155832, 1.109581, -0.633630, 0.725119, -0.659788, 0.677813, 0.704493, -0.566139, -0.687066, 0.698799, -0.348608, -0.865979, -0.952188, -0.304772, -1.556724, -0.746910, -2.444012, -2.348948, -1.008882, 0.804908, 0.009729, 0.197263, 0.235776, -0.518989, 0.765120, -0.010493, 0.124237, 0.453802, -0.753068, 0.267505, 0.369138, 0.624640, -1.259056, 0.188995, -0.313660, 0.603982, 0.936613, -0.480455, -0.810055, 0.127614, -0.464641, -0.327123, 0.073041, -1.096552, -2.355705, -1.036269, -1.969622, -1.575678, -1.160300, 0.673788, 0.638554, 0.503199, -0.041661, 0.928468, 1.256792, -0.836717, 0.410084, -0.209690, -0.239366, -0.011904, -0.019654, 0.068439, 0.694808, -0.513350, 0.435486, 0.534286, -1.016793, 0.693889, 0.444979, -0.221814, -0.526530, 0.764480, 0.222022, -0.707829, -1.145435, -1.176088, -0.844811, -1.003740, -0.690167, -0.252261, 0.624841, -0.449406, -0.357411, -0.276543, 0.261130, -0.238737, -1.107757, 0.012946, 0.499017, -0.149926, -0.512041, -0.908590, -0.930940, 0.498708, 0.783096, -0.795543, -0.438499, 0.893102, 0.139538, -0.157783, -0.423395, -0.622228, -0.259520, -0.716078, 0.174142, -0.674494, -0.256847, -0.564664, 0.243596, 0.374517, -0.635899, 0.660516, -0.979663, 0.852893, -0.702841, -0.907667, -0.930415, 0.780410, -0.663724, 0.939313, -0.332841, -0.026626, -0.808013, 0.702103, -0.654770, -0.813065, -0.571607, 0.345047, -0.717092, 0.672895, -0.060574, -0.468288, -0.375021, -0.222879, -0.089263, -0.766850, -0.354683, 0.004345, -0.627955, 0.428045, -0.123086, 0.487670, 0.118342, -0.544192, -0.458952, 0.850670, -0.838441, -0.037701, 0.473554, -0.671145, 0.097870, -0.838357, -0.210614, -0.105692, -1.106258, -0.389730, 0.421741, 0.190526, -0.296597, -0.338114, -0.454678, -0.353965, -0.014615, 0.317550, 0.208419, -0.076081, -0.025743, -0.809009, -0.753249, -0.312127, 0.068714, -0.343608, 0.590889, 0.188756, 0.142750, 0.981157, 0.978738, -0.529682, -0.472599, 0.440979, -0.634101, -0.913735, -0.371685, 0.280217, 0.143782, 0.101689, 0.538117, -0.177301, -0.587439, -0.397092, -0.341722, -0.197356, 0.378664, -0.340632, -0.816014, 0.276793, -0.599970, 0.173774, -0.764053, -0.591681, -0.070517, 0.686925, -0.704327, -0.486444, -0.105911, -0.510396, -0.238380, 0.695740, -0.863938, 0.390253, 0.693463, -0.358083, 0.144659, -0.595086, -0.842804, -0.079825, 0.229412, -0.517816, 0.085717, -0.492471, 0.001679, 0.482001, 0.937540, 0.690099, -0.853196, -0.349336, -0.667660, -0.647786, -0.892226, 0.823040, 0.207250, -0.533274, -1.028543, -1.034889, 0.669564, -0.901083, 0.802616, -0.381442, 0.299120, -0.108476, -0.063046, 0.355531, -0.090494, -0.222540, 0.835068, -0.730429, 0.416386, 0.551112, 0.540538, 0.675498, 0.631253, -0.252373, 0.408559, 1.026306, 0.908268, 0.955985, 0.593168, 0.861398, -0.351929, 0.709235, 0.877705, -0.000496, 0.803368, -0.974973, 0.662587, 0.633026, -0.695452, 0.275331, 0.925969, 0.913378, -0.121363, 0.848763, -0.386714, 0.805719, 0.410126, 0.021032, 0.935072, 0.807378, 0.604816, 0.020758, -0.287886, 1.097474, -0.825467, -0.821591, 0.982350, -0.415356, 0.307397, 0.814857, 0.819957, 0.178481, 0.839266, 1.015603, 0.300794, 0.008185, 0.903109, -0.943239, 0.336676, -0.594149, -0.254652, 0.915697, -0.486558, 0.105455, 0.813155, -0.402588, 0.480636, -0.064250, 0.145043, 0.970299, -0.698887, 0.776603, -0.017597, 0.003447, 1.021492, 0.068005, 0.383426, 0.127957};

const float biases_0[] = {0.162389, -1.762617, -0.127597, -0.033468, -0.200381, -0.320724, 3.248174, -1.294592, 1.322967, -1.456625, -0.105240, -0.019288};

